{"learner":{"attributes":{"scikit_learn":"{\"_estimator_type\": \"classifier\"}"},"feature_names":["amt","lat","long","city_pop","unix_time","merch_lat","merch_long","transaction_year","transaction_month","transaction_date","transaction_hour","transaction_minute","transaction_second","day_of_week","is_weekend","is_night","age","gender_M","category_entertainment","category_food_dining","category_gas_transport","category_grocery_net","category_grocery_pos","category_health_fitness","category_home","category_kids_pets","category_misc_net","category_misc_pos","category_personal_care","category_shopping_net","category_shopping_pos","category_travel"],"feature_types":["float","float","float","int","int","float","float","int","int","int","int","int","int","int","i","i","int","i","float","float","float","float","float","float","float","float","float","float","float","float","float","float"],"gradient_booster":{"model":{"gbtree_model_param":{"num_parallel_tree":"1","num_trees":"100"},"iteration_indptr":[0,1,2,3,4,5,6,7,8,9,10,11,12,13,14,15,16,17,18,19,20,21,22,23,24,25,26,27,28,29,30,31,32,33,34,35,36,37,38,39,40,41,42,43,44,45,46,47,48,49,50,51,52,53,54,55,56,57,58,59,60,61,62,63,64,65,66,67,68,69,70,71,72,73,74,75,76,77,78,79,80,81,82,83,84,85,86,87,88,89,90,91,92,93,94,95,96,97,98,99,100],"tree_info":[0,0,0,0,0,0,0,0,0,0,0,0,0,0,0,0,0,0,0,0,0,0,0,0,0,0,0,0,0,0,0,0,0,0,0,0,0,0,0,0,0,0,0,0,0,0,0,0,0,0,0,0,0,0,0,0,0,0,0,0,0,0,0,0,0,0,0,0,0,0,0,0,0,0,0,0,0,0,0,0,0,0,0,0,0,0,0,0,0,0,0,0,0,0,0,0,0,0,0,0],"trees":[{"base_weights":[3.4211077E-8,7.892009E-1,-1.2462811E0,-1.413842E0,1.2237276E0,-1.7517403E0,6.523516E-1,-1.8303488E0,1.5259948E-1,8.4991175E-1,1.9984215E0,-1.9380566E0,-2.3126747E-1,4.4603035E-2,1.5952514E0,-1.9346088E0,5.9928983E-1,-1.5958459E0,1.2942445E0,1.1611426E-2,1.7013451E0,5.996302E-1,-5.1111114E-1,-1.9738954E0,-1.2628225E0,-5.999018E-1,1.2574848E0,9.578316E-1,-1.7943257E0,-5.9944636E-1,1.9283738E0,-1.9545052E0,-1.4716762E0,-5.997964E-1,1.384272E0,1.4660739E0,-5.976471E-1,-5.615449E-1,1.8609718E0,1.7403243E0,-5.9915936E-1,-1.0872372E0,-1.9802756E0,-5.998419E-1,3.783604E-1,1.4185452E0,-5.982495E-1,-1.195782E0,1.6902436E0,-5.9990287E-1,1.3758224E0,1.9439834E0,-5.873016E-1,-4.4306424E-1,-5.9285474E-1,1.1896108E-1,-5.9940004E-1,-5.900415E-1,5.920653E-1,4.599011E-1,-5.935657E-1,-3.0875114E-1,9.8618865E-2,5.819331E-1,-5.981805E-1,5.3076005E-1,-5.9884506E-1,-5.9881485E-1,2.587933E-1,-5.999937E-1,-5.1784045E-1,-5.99132E-1,5.994081E-1,4.8150226E-1,-2.2783108E-1,2.54182E-1,-5.9975123E-1,-5.988462E-1,5.6846064E-1,-5.8883727E-1,5.663578E-1,-4.8000002E-1,5.8360183E-1],"categories":[],"categories_nodes":[],"categories_segments":[],"categories_sizes":[],"default_left":[0,0,0,0,0,0,0,0,0,0,0,0,0,0,0,0,0,0,0,0,0,0,0,0,0,0,0,0,0,0,0,0,0,0,0,0,0,0,0,0,0,0,0,0,0,0,0,0,0,0,0,0,0,0,0,0,0,0,0,0,0,0,0,0,0,0,0,0,0,0,0,0,0,0,0,0,0,0,0,0,0,0,0],"id":0,"left_children":[1,3,5,7,9,11,13,15,17,19,21,23,25,27,29,31,-1,33,35,37,39,-1,-1,41,43,-1,45,47,49,-1,51,53,55,-1,57,59,-1,61,63,65,-1,67,69,-1,71,73,-1,75,77,-1,79,81,-1,-1,-1,-1,-1,-1,-1,-1,-1,-1,-1,-1,-1,-1,-1,-1,-1,-1,-1,-1,-1,-1,-1,-1,-1,-1,-1,-1,-1,-1,-1],"loss_changes":[3.930665E5,2.3423608E5,1.4870073E5,2.6300836E4,5.9184312E4,3.46655E4,1.8668754E4,1.2713117E4,1.6905307E4,9.839714E4,8.853125E1,2.6355E3,3.517357E4,3.3271246E4,1.5288213E4,2.8265625E2,0E0,4.0254424E3,2.896211E3,7.363288E4,9.863484E3,0E0,0E0,5.8346875E2,6.6466074E3,0E0,3.8016914E3,2.0882406E4,4.282385E3,0E0,7.1266016E2,3.0479688E2,1.2608853E3,0E0,7.928353E2,1.1257041E3,0E0,2.207805E4,4.996758E3,7.305828E3,0E0,1.3161833E3,5.1115625E2,0E0,6.5594194E3,2.80825E3,0E0,5.51678E3,7.4556035E3,0E0,6.884035E2,5.9039062E1,0E0,0E0,0E0,0E0,0E0,0E0,0E0,0E0,0E0,0E0,0E0,0E0,0E0,0E0,0E0,0E0,0E0,0E0,0E0,0E0,0E0,0E0,0E0,0E0,0E0,0E0,0E0,0E0,0E0,0E0,0E0],"parents":[2147483647,0,0,1,1,2,2,3,3,4,4,5,5,6,6,7,7,8,8,9,9,10,10,11,11,12,12,13,13,14,14,15,15,17,17,18,18,19,19,20,20,23,23,24,24,26,26,27,27,28,28,30,30,31,31,32,32,34,34,35,35,37,37,38,38,39,39,41,41,42,42,44,44,45,45,47,47,48,48,50,50,51,51],"right_children":[2,4,6,8,10,12,14,16,18,20,22,24,26,28,30,32,-1,34,36,38,40,-1,-1,42,44,-1,46,48,50,-1,52,54,56,-1,58,60,-1,62,64,66,-1,68,70,-1,72,74,-1,76,78,-1,80,82,-1,-1,-1,-1,-1,-1,-1,-1,-1,-1,-1,-1,-1,-1,-1,-1,-1,-1,-1,-1,-1,-1,-1,-1,-1,-1,-1,-1,-1,-1,-1],"split_conditions":[2.506E1,6.47E0,2.2E1,2.2E1,1E0,1E0,1E0,1E0,5.5E1,2.2E1,2.441E1,1E0,9.663E1,5.324E1,9.566E1,1E0,5.9928983E-1,4.808989E1,2.206E3,1E0,1E0,5.996302E-1,-5.1111114E-1,2.569E1,5.7E1,-5.999018E-1,1.466E2,4.689E1,1.8675E2,-5.9944636E-1,1.4974E2,-1.2136168E2,1.67E2,-5.997964E-1,6.33E0,1E0,-5.976471E-1,1.763E1,1.823E1,1E0,-5.9915936E-1,2.8E1,1E0,-5.998419E-1,1.2E1,6.4E1,-5.982495E-1,2.694E1,5.5E1,-5.9990287E-1,1E0,1E0,-5.873016E-1,-4.4306424E-1,-5.9285474E-1,1.1896108E-1,-5.9940004E-1,-5.900415E-1,5.920653E-1,4.599011E-1,-5.935657E-1,-3.0875114E-1,9.8618865E-2,5.819331E-1,-5.981805E-1,5.3076005E-1,-5.9884506E-1,-5.9881485E-1,2.587933E-1,-5.999937E-1,-5.1784045E-1,-5.99132E-1,5.994081E-1,4.8150226E-1,-2.2783108E-1,2.54182E-1,-5.9975123E-1,-5.988462E-1,5.6846064E-1,-5.8883727E-1,5.663578E-1,-4.8000002E-1,5.8360183E-1],"split_indices":[0,0,10,10,20,19,19,20,16,10,0,27,0,0,0,25,0,5,3,21,24,0,0,0,16,0,0,0,0,0,0,6,3,0,0,24,0,0,0,19,0,9,28,0,10,16,0,0,16,0,24,12,0,0,0,0,0,0,0,0,0,0,0,0,0,0,0,0,0,0,0,0,0,0,0,0,0,0,0,0,0,0,0],"split_type":[0,0,0,0,0,0,0,0,0,0,0,0,0,0,0,0,0,0,0,0,0,0,0,0,0,0,0,0,0,0,0,0,0,0,0,0,0,0,0,0,0,0,0,0,0,0,0,0,0,0,0,0,0,0,0,0,0,0,0,0,0,0,0,0,0,0,0,0,0,0,0,0,0,0,0,0,0,0,0,0,0,0,0],"sum_hessian":[3.99632E5,2.4468617E5,1.5494584E5,4.0310473E4,2.0437569E5,1.2236861E5,3.257723E4,3.1843357E4,8.467115E3,1.3785712E5,6.651858E4,1.0901038E5,1.3358224E4,1.980981E4,1.2767419E4,3.0999541E4,8.438176E2,3.344527E3,5.122588E3,6.94648E4,6.839232E4,6.651283E4,5.75E0,1.03514305E5,5.496081E3,6.1055E3,7.252723E3,1.3236784E4,6.573027E3,1.08275E3,1.1684669E4,2.9719027E4,1.2805135E3,2.946E3,3.9852704E2,4.868588E3,2.54E2,5.3030277E4,1.6434521E4,6.767957E4,7.1275E2,7.4076355E2,1.0277354E5,3.79325E3,1.702831E3,6.910973E3,3.4175E2,3.3590542E3,9.87773E3,6.1735E3,3.9952704E2,1.1638419E4,4.625E1,1.2932635E3,2.8425764E4,2.8151352E2,9.99E2,5.925E1,3.3927704E2,4.776338E3,9.225E1,3.4767926E4,1.8262352E4,1.61057705E4,3.2875E2,6.716107E4,5.185E2,5.0525E2,2.3551352E2,9.53725E4,7.4010405E3,6.9025E2,1.0125811E3,6.3662095E3,5.4476355E2,9.480541E2,2.411E3,5.19E2,9.35873E3,5.275E1,3.4677704E2,4E0,1.1634419E4],"tree_param":{"num_deleted":"0","num_feature":"32","num_nodes":"83","size_leaf_vector":"1"}},{"base_weights":[-2.9222234E-4,6.0256165E-1,-9.5308197E-1,-1.0866742E0,9.324789E-1,-1.3513454E0,5.1426464E-1,-1.4107827E0,1.1232921E-1,1.005859E0,-1.8468719E0,-1.4958425E0,-1.8871419E-1,7.3393196E-2,1.2272232E0,-1.491014E0,4.6415952E-1,-1.2355988E0,9.634041E-1,1.0713612E0,-1.8530942E0,-1.7570451E0,-8.0833405E-1,-1.5227975E0,-9.8745316E-1,-1.5553175E0,9.378446E-1,7.5188434E-1,-1.3889309E0,-4.6427062E-1,1.485307E0,-1.5124989E0,-1.0750334E0,-4.6450472E-1,1.0688853E0,1.090007E0,-4.6304068E-1,1.1378305E0,-1.8142785E0,-1.7623944E0,-8.080561E-1,-5.201838E-1,-6.288222E-1,-1.0007653E0,-1.5307564E0,-1.553588E0,2.769408E-1,-6.220241E-1,-4.6457654E-1,1.2392634E0,-2.3812762E-1,-5.349675E-1,1.2961589E0,-4.645773E-1,1.0543904E0,1.4973782E0,-4.5601293E-1,-3.2853705E-1,-4.5971844E-1,-4.6698835E-1,3.893258E-1,-4.5787117E-1,4.577361E-1,3.449554E-1,-7.648418E-1,3.5731718E-1,-5.8635616E-1,-5.115799E-1,-6.04679E-1,-5.201588E-1,-6.289217E-1,-5.574501E-1,1.438126E-1,-4.6463922E-1,-3.9096835E-1,-6.1221063E-1,-4.6453574E-1,-4.667718E-1,4.642401E-1,3.9222845E-1,-7.0195246E-1,-5.898881E-1,2.2092207E-1,2.4621913E-1,-4.64474E-1,-4.6385726E-1,4.357777E-1,-4.5705408E-1,4.3427607E-1,-6.4940226E-1,4.4962823E-1],"categories":[],"categories_nodes":[],"categories_segments":[],"categories_sizes":[],"default_left":[0,0,0,0,0,0,0,0,0,0,0,0,0,0,0,0,0,0,0,0,0,0,0,0,0,0,0,0,0,0,0,0,0,0,0,0,0,0,0,0,0,0,0,0,0,0,0,0,0,0,0,0,0,0,0,0,0,0,0,0,0,0,0,0,0,0,0,0,0,0,0,0,0,0,0,0,0,0,0,0,0,0,0,0,0,0,0,0,0,0,0],"id":1,"left_children":[1,3,5,7,9,11,13,15,17,19,21,23,25,27,29,31,-1,33,35,37,39,41,-1,43,45,47,49,51,53,-1,55,57,59,-1,61,63,-1,65,67,69,-1,-1,-1,71,73,75,77,-1,-1,79,81,83,85,-1,87,89,-1,-1,-1,-1,-1,-1,-1,-1,-1,-1,-1,-1,-1,-1,-1,-1,-1,-1,-1,-1,-1,-1,-1,-1,-1,-1,-1,-1,-1,-1,-1,-1,-1,-1,-1],"loss_changes":[2.1339106E5,1.26809805E5,8.413481E4,1.4448105E4,3.8825656E4,1.9022922E4,9.660535E3,6.9481367E3,9.078124E3,3.47335E4,3.6809375E2,1.3786719E3,1.9274883E4,1.8844627E4,8.412137E3,2.5304688E2,0E0,2.2090513E3,1.5411533E3,3.4778656E4,3.1192676E2,3.1064453E1,0E0,3.95875E2,3.6325176E3,1.6511719E1,2.4328428E3,9.087439E3,2.349876E3,0E0,3.9207422E2,2.2330078E2,1.6051578E3,0E0,4.3698502E2,1.00874414E3,0E0,2.9173484E4,8.6163086E1,3.212793E1,0E0,0E0,0E0,1.8273386E3,3.8467188E2,5.6083984E0,3.6587087E3,0E0,0E0,1.33579E3,2.3609028E3,5.299531E3,4.056334E3,0E0,3.7706335E2,5.7429688E1,0E0,0E0,0E0,0E0,0E0,0E0,0E0,0E0,0E0,0E0,0E0,0E0,0E0,0E0,0E0,0E0,0E0,0E0,0E0,0E0,0E0,0E0,0E0,0E0,0E0,0E0,0E0,0E0,0E0,0E0,0E0,0E0,0E0,0E0,0E0],"parents":[2147483647,0,0,1,1,2,2,3,3,4,4,5,5,6,6,7,7,8,8,9,9,10,10,11,11,12,12,13,13,14,14,15,15,17,17,18,18,19,19,20,20,21,21,23,23,24,24,25,25,26,26,27,27,28,28,30,30,31,31,32,32,34,34,35,35,37,37,38,38,39,39,43,43,44,44,45,45,46,46,49,49,50,50,51,51,52,52,54,54,55,55],"right_children":[2,4,6,8,10,12,14,16,18,20,22,24,26,28,30,32,-1,34,36,38,40,42,-1,44,46,48,50,52,54,-1,56,58,60,-1,62,64,-1,66,68,70,-1,-1,-1,72,74,76,78,-1,-1,80,82,84,86,-1,88,90,-1,-1,-1,-1,-1,-1,-1,-1,-1,-1,-1,-1,-1,-1,-1,-1,-1,-1,-1,-1,-1,-1,-1,-1,-1,-1,-1,-1,-1,-1,-1,-1,-1,-1,-1],"split_conditions":[2.441E1,6.47E0,2.2E1,2.2E1,1E0,1E0,1E0,1E0,5.5E1,1E0,2.2E1,1E0,9.663E1,5.324E1,9.566E1,6.2E0,4.6415952E-1,4.808989E1,2.206E3,1E0,2.2E1,1.763E1,-8.0833405E-1,2.569E1,5.7E1,2.506E1,5.5E1,4.689E1,1.8675E2,-4.6427062E-1,1.4974E2,-1.2136168E2,2.1E1,-4.6450472E-1,6.33E0,1E0,-4.6304068E-1,1E0,1.763E1,1.763E1,-8.080561E-1,-5.201838E-1,-6.288222E-1,6E0,1E0,2.506E1,1.2E1,-6.220241E-1,-4.6457654E-1,2E1,1.6E1,2.694E1,5.5E1,-4.645773E-1,1E0,7.3E1,-4.5601293E-1,-3.2853705E-1,-4.5971844E-1,-4.6698835E-1,3.893258E-1,-4.5787117E-1,4.577361E-1,3.449554E-1,-7.648418E-1,3.5731718E-1,-5.8635616E-1,-5.115799E-1,-6.04679E-1,-5.201588E-1,-6.289217E-1,-5.574501E-1,1.438126E-1,-4.6463922E-1,-3.9096835E-1,-6.1221063E-1,-4.6453574E-1,-4.667718E-1,4.642401E-1,3.9222845E-1,-7.0195246E-1,-5.898881E-1,2.2092207E-1,2.4621913E-1,-4.64474E-1,-4.6385726E-1,4.357777E-1,-4.5705408E-1,4.3427607E-1,-6.4940226E-1,4.4962823E-1],"split_indices":[0,0,10,10,30,19,19,20,16,29,10,27,0,0,0,0,0,5,3,24,10,0,0,0,16,0,16,0,0,0,0,6,10,0,0,23,0,18,0,0,0,0,0,13,28,0,10,0,0,10,10,0,16,0,24,3,0,0,0,0,0,0,0,0,0,0,0,0,0,0,0,0,0,0,0,0,0,0,0,0,0,0,0,0,0,0,0,0,0,0,0],"split_type":[0,0,0,0,0,0,0,0,0,0,0,0,0,0,0,0,0,0,0,0,0,0,0,0,0,0,0,0,0,0,0,0,0,0,0,0,0,0,0,0,0,0,0,0,0,0,0,0,0,0,0,0,0,0,0,0,0,0,0,0,0,0,0,0,0,0,0,0,0,0,0,0,0,0,0,0,0,0,0,0,0,0,0,0,0,0,0,0,0,0,0],"sum_hessian":[3.715051E5,2.2753708E5,1.4396803E5,3.7177785E4,1.9035928E5,1.13234336E5,3.0733693E4,2.926645E4,7.9113354E3,1.8546334E5,4.895947E3,1.0071654E5,1.2517795E4,1.8991219E4,1.1742476E4,2.8494082E4,7.723684E2,3.0617307E3,4.8496045E3,1.8130992E5,4.153413E3,4.4295703E3,4.6637637E2,9.56435E4,5.0730415E3,5.6561113E3,6.8616836E3,1.2972641E4,6.0185776E3,9.988056E2,1.0743671E4,2.7092168E4,1.4019133E3,2.6961536E3,3.6557715E2,4.617001E3,2.3260387E2,1.7722817E5,4.081756E3,3.7516301E3,4.0178323E2,4.1527437E3,2.7682635E2,1.438196E3,9.42053E4,3.503924E3,1.5691176E3,6.858311E1,5.5875283E3,5.461713E3,1.3999705E3,3.8559258E3,9.116715E3,5.6497573E3,3.6882004E2,1.070119E4,4.2480373E1,1.2352407E3,2.5856928E4,1.1656669E3,2.3624649E2,5.437816E1,3.1119897E2,4.542984E3,7.401673E1,1.7422988E5,2.9982979E3,2.654068E3,1.427688E3,3.4620847E3,2.895454E2,9.105094E2,5.276866E2,8.727906E4,6.9262383E3,3.2421104E1,3.471503E3,6.4230743E2,9.268101E2,5.3602603E3,1.01452415E2,5.0443167E2,8.955388E2,1.6493708E3,2.206555E3,4.751156E2,8.641599E3,4.842933E1,3.2039072E2,3.4479842E0,1.0697742E4],"tree_param":{"num_deleted":"0","num_feature":"32","num_nodes":"91","size_leaf_vector":"1"}},{"base_weights":[-6.2381933E-3,4.7324166E-1,-8.276857E-1,-8.582668E-1,7.429016E-1,-1.1639282E0,4.2379805E-1,-1.138615E0,1.2736954E-1,4.5751655E-1,1.3822658E0,-1.2947305E0,-1.529604E-1,2.1639705E-2,1.0547255E0,-1.2678292E0,4.0923345E-1,-1.0061234E0,7.9125416E-1,-1.3381164E-1,1.1114326E0,4.147554E-1,-3.58881E-1,-1.3182564E0,-8.4886163E-1,-4.0338573E-1,7.479013E-1,6.0985774E-1,-1.2048246E0,-4.030633E-1,1.2738105E0,-1.2818615E0,9.7960174E-1,-1.3937945E0,2.4383056E-1,2.441701E-1,1.28986E0,-5.063684E-1,1.2432529E0,1.1371126E0,-5.328121E-1,-1.3387593E0,-1.0729338E0,-4.0334338E-1,2.5546432E-1,8.650084E-1,-1.5892303E0,-7.8144395E-1,1.1005566E0,-4.0338647E-1,8.942682E-1,1.2841932E0,-3.9461312E-1,-2.8906623E-1,-3.9594647E-1,-4.3982592E-1,4.131029E-1,-4.038234E-1,-6.4618766E-1,3.5644603E-1,-4.2251468E-1,-4.2054296E-1,2.5122517E-1,-8.9652467E-1,3.979679E-1,-3.493474E-2,-3.7477666E-1,3.9490727E-1,-5.2211297E-1,3.4790984E-1,-5.910458E-1,-1.5849079E-1,-4.034508E-1,-3.810185E-1,-3.9666526E-2,-4.025598E-1,4.0303662E-1,3.24889E-1,-4.070661E-3,-3.8516417E-1,-4.992622E-1,-3.789538E-1,1.9242938E-1,-4.026399E-1,3.6974174E-1,-3.9566755E-1,3.6823058E-1,-7.990489E-1,3.856519E-1],"categories":[],"categories_nodes":[],"categories_segments":[],"categories_sizes":[],"default_left":[0,0,0,0,0,0,0,0,0,0,0,0,0,0,0,0,0,0,0,0,0,0,0,0,0,0,0,0,0,0,0,0,0,0,0,0,0,0,0,0,0,0,0,0,0,0,0,0,0,0,0,0,0,0,0,0,0,0,0,0,0,0,0,0,0,0,0,0,0,0,0,0,0,0,0,0,0,0,0,0,0,0,0,0,0,0,0,0,0],"id":2,"left_children":[1,3,5,7,9,11,13,15,17,19,21,23,25,27,29,31,-1,33,35,37,39,-1,-1,41,43,-1,45,47,49,-1,51,53,55,57,59,61,63,65,67,69,-1,71,73,-1,75,77,79,81,83,-1,85,87,-1,-1,-1,-1,-1,-1,-1,-1,-1,-1,-1,-1,-1,-1,-1,-1,-1,-1,-1,-1,-1,-1,-1,-1,-1,-1,-1,-1,-1,-1,-1,-1,-1,-1,-1,-1,-1],"loss_changes":[1.28017805E5,7.369044E4,5.041033E4,9.551098E3,3.1140523E4,1.24863125E4,6.4372725E3,8.704258E3,5.761349E3,4.5628586E4,3.5882812E1,8.75875E2,1.1614973E4,1.1179449E4,5.190877E3,8.0828125E2,0E0,1.3706882E3,1.31671E3,3.1791729E4,4.1570625E3,0E0,0E0,3.9801562E2,2.2953645E3,0E0,1.6877896E3,7.151039E3,1.4751943E3,0E0,2.4497656E2,3.0601562E2,1.5689896E2,7.540039E1,1.0475026E3,2.2503828E3,4.005381E2,1.41276045E4,2.8803965E3,3.9003828E3,0E0,3.6021875E2,1.1366362E3,0E0,2.2606453E3,1.1237363E3,4.602661E0,1.8729752E3,2.4966533E3,0E0,2.3332439E2,5.0149414E1,0E0,0E0,0E0,0E0,0E0,0E0,0E0,0E0,0E0,0E0,0E0,0E0,0E0,0E0,0E0,0E0,0E0,0E0,0E0,0E0,0E0,0E0,0E0,0E0,0E0,0E0,0E0,0E0,0E0,0E0,0E0,0E0,0E0,0E0,0E0,0E0,0E0],"parents":[2147483647,0,0,1,1,2,2,3,3,4,4,5,5,6,6,7,7,8,8,9,9,10,10,11,11,12,12,13,13,14,14,15,15,17,17,18,18,19,19,20,20,23,23,24,24,26,26,27,27,28,28,30,30,31,31,32,32,33,33,34,34,35,35,36,36,37,37,38,38,39,39,41,41,42,42,44,44,45,45,46,46,47,47,48,48,50,50,51,51],"right_children":[2,4,6,8,10,12,14,16,18,20,22,24,26,28,30,32,-1,34,36,38,40,-1,-1,42,44,-1,46,48,50,-1,52,54,56,58,60,62,64,66,68,70,-1,72,74,-1,76,78,80,82,84,-1,86,88,-1,-1,-1,-1,-1,-1,-1,-1,-1,-1,-1,-1,-1,-1,-1,-1,-1,-1,-1,-1,-1,-1,-1,-1,-1,-1,-1,-1,-1,-1,-1,-1,-1,-1,-1,-1,-1],"split_conditions":[2.506E1,6.75E0,2.2E1,2.2E1,1E0,1E0,1E0,1E0,5.5E1,2.2E1,2.441E1,1E0,9.663E1,5.324E1,9.566E1,1E0,4.0923345E-1,1E0,1E0,1E0,1E0,4.147554E-1,-3.58881E-1,1E0,5.7E1,-4.0338573E-1,1.466E2,4.689E1,1.8675E2,-4.030633E-1,1.4974E2,-1.09575096E2,3E1,6.47E0,2.8E1,1E0,2.42E0,5.5E1,1.823E1,1E0,-5.328121E-1,2.569E1,4.4011246E1,-4.0334338E-1,1.2E1,5.5E1,1.2E1,-7.488659E1,5.5E1,-4.0338647E-1,1E0,1E0,-3.9461312E-1,-2.8906623E-1,-3.9594647E-1,-4.3982592E-1,4.131029E-1,-4.038234E-1,-6.4618766E-1,3.5644603E-1,-4.2251468E-1,-4.2054296E-1,2.5122517E-1,-8.9652467E-1,3.979679E-1,-3.493474E-2,-3.7477666E-1,3.9490727E-1,-5.2211297E-1,3.4790984E-1,-5.910458E-1,-1.5849079E-1,-4.034508E-1,-3.810185E-1,-3.9666526E-2,-4.025598E-1,4.0303662E-1,3.24889E-1,-4.070661E-3,-3.8516417E-1,-4.992622E-1,-3.789538E-1,1.9242938E-1,-4.026399E-1,3.6974174E-1,-3.9566755E-1,3.6823058E-1,-7.990489E-1,3.856519E-1],"split_indices":[0,0,10,10,20,19,19,20,16,10,0,27,0,0,0,21,0,27,25,21,19,0,0,28,16,0,0,0,0,0,0,6,16,0,16,31,0,16,0,18,0,0,5,0,10,16,10,6,16,0,24,11,0,0,0,0,0,0,0,0,0,0,0,0,0,0,0,0,0,0,0,0,0,0,0,0,0,0,0,0,0,0,0,0,0,0,0,0,0],"split_type":[0,0,0,0,0,0,0,0,0,0,0,0,0,0,0,0,0,0,0,0,0,0,0,0,0,0,0,0,0,0,0,0,0,0,0,0,0,0,0,0,0,0,0,0,0,0,0,0,0,0,0,0,0,0,0,0,0,0,0,0,0,0,0,0,0,0,0,0,0,0,0,0,0,0,0,0,0,0,0,0,0,0,0,0,0,0,0,0,0],"sum_hessian":[3.2502556E5,2.0523189E5,1.19793664E5,3.4563656E4,1.7066823E5,9.442428E4,2.5369383E4,2.6909523E4,7.6541323E3,1.1799984E5,5.26684E4,8.3606695E4,1.0817589E4,1.5494252E4,9.875131E3,2.558888E4,1.3206434E3,2.8269622E3,4.82717E3,6.196576E4,5.6034082E4,5.2663715E4,4.6857305E0,7.9414516E4,4.192183E3,4.6569243E3,6.160665E3,1.0472226E4,5.0220264E3,8.261657E2,9.048965E3,2.5430527E4,1.5835228E2,2.1576543E3,6.693078E2,2.3024016E3,2.5247686E3,4.8771535E4,1.3194224E4,5.5540727E4,4.9335263E2,7.328523E4,6.12929E3,2.8934148E3,1.2987682E3,5.867301E3,2.9336407E2,2.7302961E3,7.7419297E3,4.708786E3,3.1324005E2,9.013325E3,3.5639324E1,2.7124058E3,2.2718123E4,2.175859E1,1.3659369E2,2.0328219E3,1.24832405E2,4.2606885E2,2.4323894E2,6.0962305E2,1.6927786E3,2.0789541E1,2.503979E3,3.1984816E4,1.6786719E4,1.2879217E4,3.1500693E2,5.5140535E4,4.0019165E2,5.460419E2,7.273918E4,5.067117E3,1.0621729E3,5.261174E2,7.7265076E2,4.700886E3,1.1664148E3,6.1406216E1,2.3195784E2,2.039803E3,6.904931E2,3.9620547E2,7.345724E3,4.0597904E1,2.7264215E2,2.322888E0,9.011003E3],"tree_param":{"num_deleted":"0","num_feature":"32","num_nodes":"89","size_leaf_vector":"1"}},{"base_weights":[-5.425422E-3,4.0035078E-1,-7.4595386E-1,-8.853766E-1,6.027666E-1,-1.0513948E0,3.7536255E-1,-1.0753889E0,5.783961E-1,3.4742832E-1,1.2514045E0,-1.1762962E0,-1.3665546E-1,4.963065E-1,-1.39559E0,-1.227523E0,-2.5180542E-1,-3.7566012E-1,9.176746E-1,-1.2171618E-1,9.342778E-1,1.2516407E0,-3.1655216E-1,-1.1972499E0,-7.764976E-1,-3.690259E-1,6.0869586E-1,6.386116E-1,-1.0555905E0,-1.5804206E0,-3.6861664E-1,-1.255788E0,3.6700144E-1,-1.274376E0,2.157407E-1,-1.4008588E0,1.0380626E0,-3.8869444E-1,1.1062799E0,9.6565944E-1,-1.99995E0,3.7578237E-1,1.213352E0,-1.222806E0,-9.110488E-1,-3.6897528E-1,2.3355961E-1,1.0913646E0,1.7053647E-1,7.472959E-1,-1.3419825E0,-1.3965017E0,1.0845722E0,-1.3228165E0,-2.0499387E0,-3.7246978E-1,-4.114474E-1,-3.7102136E-1,-4.6769097E-1,5.7551265E-1,-1.5721982E-2,-3.826177E-1,-5.442838E-1,-5.0415546E-1,3.3192113E-1,-1.9073114E-1,2.3723762E-1,3.515599E-1,-4.322556E-1,2.979696E-1,-6.018743E-1,-3.9244485E-1,-6.2220013E-1,-1.1679857E0,3.70273E-1,-1.1643623E-1,-3.691036E-1,-3.417505E-1,4.1091353E-2,-3.6820713E-1,3.686092E-1,3.9032072E-1,-4.634972E-1,2.4513632E-1,-2.821328E-1,2.560982E-1,-1.340603E-1,-4.839845E-1,-3.6857876E-1,-5.097002E-1,-3.6872017E-1,3.55662E-1,-1.1657622E0,-6.513565E-1,-3.7407157E-1,-4.164543E-1,-1.4498984E0],"categories":[],"categories_nodes":[],"categories_segments":[],"categories_sizes":[],"default_left":[0,0,0,0,0,0,0,0,0,0,0,0,0,0,0,0,0,0,0,0,0,0,0,0,0,0,0,0,0,0,0,0,0,0,0,0,0,0,0,0,0,0,0,0,0,0,0,0,0,0,0,0,0,0,0,0,0,0,0,0,0,0,0,0,0,0,0,0,0,0,0,0,0,0,0,0,0,0,0,0,0,0,0,0,0,0,0,0,0,0,0,0,0,0,0,0,0],"id":3,"left_children":[1,3,5,7,9,11,13,15,17,19,21,23,25,27,29,31,33,-1,35,37,39,41,-1,43,45,-1,47,49,51,53,-1,55,-1,57,59,61,63,65,67,69,71,-1,73,75,77,-1,79,81,83,85,87,89,91,93,95,-1,-1,-1,-1,-1,-1,-1,-1,-1,-1,-1,-1,-1,-1,-1,-1,-1,-1,-1,-1,-1,-1,-1,-1,-1,-1,-1,-1,-1,-1,-1,-1,-1,-1,-1,-1,-1,-1,-1,-1,-1,-1],"loss_changes":[8.244479E4,4.61291E4,3.326458E4,6.706246E3,2.5362574E4,8.720828E3,4.4542295E3,2.6734297E3,1.7219767E3,3.0252992E4,2.4875E1,5.616953E2,7.4753994E3,4.2992383E3,3.90625E1,1.2492949E3,1.5916387E3,0E0,6.540587E2,2.0021059E4,4.497133E3,8.59375E-2,0E0,4.65625E2,1.5333673E3,0E0,1.1533578E3,3.8390933E3,1.1946322E3,7.316016E1,0E0,2.759961E1,0E0,9.260498E0,1.0433358E3,3.6944733E0,4.1491187E2,1.4618845E4,1.823582E3,3.960004E3,2.3767334E1,0E0,1.2188953E2,3.6816406E2,1.2517148E3,0E0,1.5105225E3,1.4367949E3,2.0554036E3,2.147372E3,2.6561035E1,6.937891E1,1.1765445E2,2.3560669E1,3.9924127E2,0E0,0E0,0E0,0E0,0E0,0E0,0E0,0E0,0E0,0E0,0E0,0E0,0E0,0E0,0E0,0E0,0E0,0E0,0E0,0E0,0E0,0E0,0E0,0E0,0E0,0E0,0E0,0E0,0E0,0E0,0E0,0E0,0E0,0E0,0E0,0E0,0E0,0E0,0E0,0E0,0E0,0E0],"parents":[2147483647,0,0,1,1,2,2,3,3,4,4,5,5,6,6,7,7,8,8,9,9,10,10,11,11,12,12,13,13,14,14,15,15,16,16,18,18,19,19,20,20,21,21,23,23,24,24,26,26,27,27,28,28,29,29,31,31,33,33,34,34,35,35,36,36,37,37,38,38,39,39,40,40,42,42,43,43,44,44,46,46,47,47,48,48,49,49,50,50,51,51,52,52,53,53,54,54],"right_children":[2,4,6,8,10,12,14,16,18,20,22,24,26,28,30,32,34,-1,36,38,40,42,-1,44,46,-1,48,50,52,54,-1,56,-1,58,60,62,64,66,68,70,72,-1,74,76,78,-1,80,82,84,86,88,90,92,94,96,-1,-1,-1,-1,-1,-1,-1,-1,-1,-1,-1,-1,-1,-1,-1,-1,-1,-1,-1,-1,-1,-1,-1,-1,-1,-1,-1,-1,-1,-1,-1,-1,-1,-1,-1,-1,-1,-1,-1,-1,-1,-1],"split_conditions":[2.506E1,6.2E0,2.2E1,1E0,1E0,1E0,1E0,1E0,5.5E1,2.2E1,2.441E1,1E0,9.663E1,1E0,5.324E1,1E0,5.8E1,-3.7566012E-1,2.42E0,1E0,1E0,2.248E1,-3.1655216E-1,1E0,5.7E1,-3.690259E-1,8E0,1E0,1.8675E2,5.5E1,-3.6861664E-1,2.2E1,3.6700144E-1,5.5E1,5.9E1,2.2E1,1E0,1E0,1.823E1,1E0,6.75E0,3.7578237E-1,5.6E1,2.569E1,7.4E1,-3.6897528E-1,1.2E1,5.5E1,1.166E3,1E0,5.324E1,5.324E1,5E1,2.694E1,4.689E1,-3.7246978E-1,-4.114474E-1,-3.7102136E-1,-4.6769097E-1,5.7551265E-1,-1.5721982E-2,-3.826177E-1,-5.442838E-1,-5.0415546E-1,3.3192113E-1,-1.9073114E-1,2.3723762E-1,3.515599E-1,-4.322556E-1,2.979696E-1,-6.018743E-1,-3.9244485E-1,-6.2220013E-1,-1.1679857E0,3.70273E-1,-1.1643623E-1,-3.691036E-1,-3.417505E-1,4.1091353E-2,-3.6820713E-1,3.686092E-1,3.9032072E-1,-4.634972E-1,2.4513632E-1,-2.821328E-1,2.560982E-1,-1.340603E-1,-4.839845E-1,-3.6857876E-1,-5.097002E-1,-3.6872017E-1,3.55662E-1,-1.1657622E0,-6.513565E-1,-3.7407157E-1,-4.164543E-1,-1.4498984E0],"split_indices":[0,0,10,25,20,19,25,31,16,10,0,27,0,24,0,20,16,0,0,21,30,0,0,28,16,0,10,18,0,16,0,10,0,16,16,10,13,27,0,29,0,0,16,0,16,0,10,16,3,23,0,0,16,0,0,0,0,0,0,0,0,0,0,0,0,0,0,0,0,0,0,0,0,0,0,0,0,0,0,0,0,0,0,0,0,0,0,0,0,0,0,0,0,0,0,0,0],"split_type":[0,0,0,0,0,0,0,0,0,0,0,0,0,0,0,0,0,0,0,0,0,0,0,0,0,0,0,0,0,0,0,0,0,0,0,0,0,0,0,0,0,0,0,0,0,0,0,0,0,0,0,0,0,0,0,0,0,0,0,0,0,0,0,0,0,0,0,0,0,0,0,0,0,0,0,0,0,0,0,0,0,0,0,0,0,0,0,0,0,0,0,0,0,0,0,0,0],"sum_hessian":[2.7436694E5,1.7724508E5,9.712186E4,2.4108246E4,1.5313683E5,7.633001E4,2.079185E4,2.1338553E4,2.7696929E3,1.0988271E5,4.325412E4,6.715955E4,9.170462E3,1.9463355E4,1.3284943E3,1.801103E4,3.3275242E3,4.3264444E2,2.3370483E3,6.106576E4,4.881695E4,4.3250152E4,3.9713697E0,6.3813066E4,3.3464824E3,3.7169883E3,5.453474E3,1.7829062E4,1.6342924E3,6.263015E2,7.021928E2,1.7806164E4,2.0486514E2,1.0435184E3,2.2840059E3,1.1483443E2,2.2222139E3,5.0160965E4,1.0904797E4,4.830104E4,5.1591077E2,4.2153664E4,1.0964872E3,5.8579035E4,5.2340317E3,2.3095127E3,1.0369698E3,2.5942273E3,2.8592466E3,1.6902186E4,9.268782E2,1.4100327E3,2.2425961E2,4.0688104E2,2.1942049E2,1.5867495E4,1.9386677E3,9.263518E2,1.17166595E2,3.099276E2,1.9740782E3,9.123197E1,2.3602453E1,5.3914787E1,2.168299E3,4.147363E4,8.687335E3,1.0631582E4,2.7321396E2,4.7857695E4,4.4334467E2,5.1688347E1,4.642224E2,3.712233E0,1.092775E3,5.248516E2,5.8054184E4,4.298338E3,9.356937E2,4.2006216E2,6.1690765E2,2.4035476E3,1.9067957E2,1.8075347E3,1.051712E3,1.5520088E4,1.382097E3,2.6929953E2,6.575787E2,4.9912695E2,9.1090576E2,2.205411E2,3.7185066E0,3.1150188E1,3.7573087E2,1.784801E2,4.0940395E1],"tree_param":{"num_deleted":"0","num_feature":"32","num_nodes":"97","size_leaf_vector":"1"}},{"base_weights":[-5.3967657E-3,3.4576E-1,-6.697739E-1,-6.9458437E-1,5.370747E-1,-9.6984047E-1,3.0883825E-1,-9.483003E-1,1.1923709E-1,3.1423828E-1,1.1719011E0,-1.0912411E0,-1.287661E-1,4.063519E-1,-1.2759606E0,-1.0505395E0,3.4965307E-1,-8.5339695E-1,5.8131737E-1,-4.8704807E-2,8.12954E-1,3.5190922E-1,1.1283445E0,-9.385171E-1,-1.1637285E0,-1.1638881E0,5.1221E-1,5.1941466E-1,-1.0042796E0,-1.4120028E0,-1.2376987E0,-1.0617392E0,7.9318243E-1,-1.2097055E0,2.0790344E-1,6.499597E-1,-1.8078231E0,-2.4722975E-1,1.0143956E0,3.2853204E-1,1.0414869E0,1.1491358E0,-8.076048E-1,-1.1033497E0,-4.008903E-1,-3.4776977E-1,-1.2242186E0,-4.183372E-1,-3.4767354E-1,9.827883E-1,9.450129E-2,6.040759E-1,-1.2744609E0,-1.3237195E0,9.882717E-1,-5.0979334E-1,-1.2111378E0,-2.0265763E-1,-3.344686E-1,3.4878755E-1,-4.116365E-1,-3.480282E-1,-5.395131E-1,2.851894E-1,-3.7863222E-1,2.1202493E-1,-5.915869E-1,-6.069487E-1,-3.646359E-1,-1.7437151E-1,1.4209339E-1,3.213339E-1,-3.8890058E-1,1.296569E-1,-7.69937E-1,3.2008988E-1,-4.721407E-1,-4.8835346E-1,3.4794968E-1,-3.4390408E-1,5.3561173E-2,-2.510087E-1,6.5510714E-1,-3.6256003E-1,-3.9096013E-1,3.6503235E-1,-4.1054988E-1,9.996565E-2,-7.3291737E-1,-1.986395E-1,1.9738905E-1,-4.607307E-1,-3.471472E-1,-4.8011705E-1,-3.4731868E-1,3.2851404E-1,-7.920507E-1,-3.8121203E-1,-3.4718996E-1],"categories":[],"categories_nodes":[],"categories_segments":[],"categories_sizes":[],"default_left":[0,0,0,0,0,0,0,0,0,0,0,0,0,0,0,0,0,0,0,0,0,0,0,0,0,0,0,0,0,0,0,0,0,0,0,0,0,0,0,0,0,0,0,0,0,0,0,0,0,0,0,0,0,0,0,0,0,0,0,0,0,0,0,0,0,0,0,0,0,0,0,0,0,0,0,0,0,0,0,0,0,0,0,0,0,0,0,0,0,0,0,0,0,0,0,0,0,0,0],"id":4,"left_children":[1,3,5,7,9,11,13,15,17,19,21,23,25,27,29,31,-1,33,35,37,39,-1,41,43,45,47,49,51,53,-1,55,57,59,61,63,65,67,69,71,73,75,77,-1,79,81,-1,83,-1,-1,85,87,89,91,93,95,-1,97,-1,-1,-1,-1,-1,-1,-1,-1,-1,-1,-1,-1,-1,-1,-1,-1,-1,-1,-1,-1,-1,-1,-1,-1,-1,-1,-1,-1,-1,-1,-1,-1,-1,-1,-1,-1,-1,-1,-1,-1,-1,-1],"loss_changes":[5.3943562E4,3.0107531E4,2.3478172E4,4.8517363E3,1.8074445E4,6.2478047E3,2.9001567E3,3.8723965E3,2.5107107E3,1.7118668E4,3.125E-1,5.908672E2,5.122248E3,2.8197083E3,1.36969E2,3.5366602E2,0E0,6.8064233E2,6.222295E2,1.1553177E4,4.4098125E3,0E0,7.183899E1,1.5251953E3,8.441406E0,1.7717285E0,9.371185E2,2.4861943E3,8.363801E2,0E0,1.114917E1,3.4792188E2,8.458164E1,3.725769E1,4.9588907E2,5.496355E2,1.1066223E1,1.1106623E4,1.1303076E3,3.8334634E3,1.805291E3,2.7477783E1,0E0,7.2641113E2,4.5538115E3,0E0,1.5102539E0,0E0,0E0,1.2351321E3,1.531554E3,1.0668062E3,2.0840332E1,5.0094116E1,7.334221E1,0E0,1.807251E0,0E0,0E0,0E0,0E0,0E0,0E0,0E0,0E0,0E0,0E0,0E0,0E0,0E0,0E0,0E0,0E0,0E0,0E0,0E0,0E0,0E0,0E0,0E0,0E0,0E0,0E0,0E0,0E0,0E0,0E0,0E0,0E0,0E0,0E0,0E0,0E0,0E0,0E0,0E0,0E0,0E0,0E0],"parents":[2147483647,0,0,1,1,2,2,3,3,4,4,5,5,6,6,7,7,8,8,9,9,10,10,11,11,12,12,13,13,14,14,15,15,17,17,18,18,19,19,20,20,22,22,23,23,24,24,25,25,26,26,27,27,28,28,30,30,31,31,32,32,33,33,34,34,35,35,36,36,37,37,38,38,39,39,40,40,41,41,43,43,44,44,46,46,49,49,50,50,51,51,52,52,53,53,54,54,56,56],"right_children":[2,4,6,8,10,12,14,16,18,20,22,24,26,28,30,32,-1,34,36,38,40,-1,42,44,46,48,50,52,54,-1,56,58,60,62,64,66,68,70,72,74,76,78,-1,80,82,-1,84,-1,-1,86,88,90,92,94,96,-1,98,-1,-1,-1,-1,-1,-1,-1,-1,-1,-1,-1,-1,-1,-1,-1,-1,-1,-1,-1,-1,-1,-1,-1,-1,-1,-1,-1,-1,-1,-1,-1,-1,-1,-1,-1,-1,-1,-1,-1,-1,-1,-1],"split_conditions":[2.441E1,6.75E0,2.2E1,2.2E1,1E0,1E0,1E0,1E0,5.5E1,2.2E1,2.248E1,5.277E1,9.663E1,1E0,2.506E1,1E0,3.4965307E-1,1E0,1E0,1E0,1.646E1,3.5190922E-1,1.3547247E9,4.79E1,1E0,2.506E1,1E1,1E0,1.8675E2,-1.4120028E0,2.694E1,-1.09575096E2,2E0,6.47E0,2.8E1,1E0,2.206E3,1.884E1,1.823E1,1E0,1E0,5.4E1,-8.076048E-1,4.808989E1,1E0,-3.4776977E-1,7.4E1,-4.183372E-1,-3.4767354E-1,5.5E1,6.713E3,3E1,5.324E1,5.324E1,3.3E1,-5.0979334E-1,5.324E1,-2.0265763E-1,-3.344686E-1,3.4878755E-1,-4.116365E-1,-3.480282E-1,-5.395131E-1,2.851894E-1,-3.7863222E-1,2.1202493E-1,-5.915869E-1,-6.069487E-1,-3.646359E-1,-1.7437151E-1,1.4209339E-1,3.213339E-1,-3.8890058E-1,1.296569E-1,-7.69937E-1,3.2008988E-1,-4.721407E-1,-4.8835346E-1,3.4794968E-1,-3.4390408E-1,5.3561173E-2,-2.510087E-1,6.5510714E-1,-3.6256003E-1,-3.9096013E-1,3.6503235E-1,-4.1054988E-1,9.996565E-2,-7.3291737E-1,-1.986395E-1,1.9738905E-1,-4.607307E-1,-3.471472E-1,-4.8011705E-1,-3.4731868E-1,3.2851404E-1,-7.920507E-1,-3.8121203E-1,-3.4718996E-1],"split_indices":[0,0,10,10,20,19,25,20,16,10,0,0,0,24,0,21,0,27,28,21,0,0,4,0,28,0,10,18,0,0,0,6,12,0,16,18,3,0,0,28,24,16,0,5,28,0,16,0,0,16,3,16,0,0,11,0,0,0,0,0,0,0,0,0,0,0,0,0,0,0,0,0,0,0,0,0,0,0,0,0,0,0,0,0,0,0,0,0,0,0,0,0,0,0,0,0,0,0,0],"split_type":[0,0,0,0,0,0,0,0,0,0,0,0,0,0,0,0,0,0,0,0,0,0,0,0,0,0,0,0,0,0,0,0,0,0,0,0,0,0,0,0,0,0,0,0,0,0,0,0,0,0,0,0,0,0,0,0,0,0,0,0,0,0,0,0,0,0,0,0,0,0,0,0,0,0,0,0,0,0,0,0,0,0,0,0,0,0,0,0,0,0,0,0,0,0,0,0,0,0,0],"sum_hessian":[2.3121723E5,1.5126602E5,7.995123E4,2.3495877E4,1.2777013E5,6.1189137E4,1.8762088E4,1.791161E4,5.584267E3,9.4574234E4,3.31959E4,5.3470855E4,7.7182793E3,1.7675262E4,1.0868259E3,1.7085723E4,8.258865E2,1.7982594E3,3.7860076E3,5.473873E4,3.9835508E4,3.2331416E4,8.6448395E2,1.7214812E4,3.6256043E4,2.9513247E3,4.7669546E3,1.6364287E4,1.3109739E3,1.0641647E1,1.0761843E3,1.6982984E4,1.0273871E2,1.3461716E3,4.5208774E2,3.6809775E3,1.05030075E2,4.612588E4,8.612849E3,1.2769786E4,2.706572E4,8.605001E2,3.9838297E0,1.317454E4,4.0402725E3,3.3766484E4,2.489561E3,5.6453064E1,2.8948716E3,2.2409797E3,2.5259746E3,1.5627421E4,7.3686664E2,1.1301304E3,1.808435E2,5.5127377E1,1.0210569E3,2.0563037E3,1.4926681E4,8.815997E1,1.4578729E1,1.2442782E3,1.0189337E2,3.005747E2,1.5151305E2,3.6036538E3,7.732383E1,7.525716E1,2.9772917E1,3.1521133E4,1.4604749E4,8.407032E3,2.0581572E2,1.232918E4,4.4060632E2,2.6805166E4,2.6055566E2,2.7216647E0,8.5777844E2,1.2747081E4,4.2745874E2,3.4578884E3,5.82384E2,2.0906711E3,3.9889008E2,2.0385936E3,2.0238615E2,2.3095732E3,2.164014E2,6.374652E2,1.4989956E4,2.2455357E2,5.1231305E2,4.2053998E2,7.0959033E2,1.7635214E2,4.491358E0,4.739986E2,5.470583E2],"tree_param":{"num_deleted":"0","num_feature":"32","num_nodes":"99","size_leaf_vector":"1"}},{"base_weights":[-5.374356E-3,3.0995092E-1,-5.9037286E-1,1.0296698E-1,3.3613065E-1,-9.0703315E-1,2.770053E-1,-2.3205626E-1,7.108695E-1,-1.0200603E0,-1.5753788E-1,3.5302082E-1,-9.595665E-1,-4.8400208E-1,7.063317E-1,7.733364E-1,-2.0873957E0,-8.5162735E-1,-1.1154647E0,-1.1778679E0,4.2755124E-1,4.095161E-1,-1.2362181E0,-1.2534596E0,9.115521E-1,-7.906619E-1,6.060555E-1,-4.3684042E-1,1.1469816E0,8.431058E-1,-1.4300033E0,-1.8303252E0,-2.1973996E0,-1.0180914E0,-3.2900152E-1,-3.3373234E-1,-3.4659138E-1,-2.251248E0,-3.346104E-1,9.2745864E-1,6.917712E-2,2.1455252E-1,7.51616E-1,-1.4795321E0,-3.3295095E-1,-1.4589455E0,-3.3316833E-1,1.0249343E0,-6.7622405E-1,-3.40186E-1,3.0231658E-1,-1.4887942E-1,3.9259952E-1,-4.0091366E-1,2.3776796E-1,-3.3885416E-1,3.9024326E-1,-3.6599076E-1,2.748261E-1,-4.4473585E-1,-4.0717807E-1,-4.9232903E-1,-5.727165E-1,-7.0367527E-1,-5.996355E-1,-2.3179086E-1,-3.6780676E-1,-3.442777E-1,1.293097E-1,-7.2543573E-1,-5.9935284E-1,3.452527E-1,-3.746293E-1,1.7387043E-1,-2.4662451E-1,1.6279012E-1,-3.4304702E-1,-3.822401E-1,3.119156E-1,-4.0483427E-1,-5.8643466E-1,-3.7636873E-1,-6.319599E-1,-7.127657E-1,3.2291865E-1],"categories":[],"categories_nodes":[],"categories_segments":[],"categories_sizes":[],"default_left":[0,0,0,0,0,0,0,0,0,0,0,0,0,0,0,0,0,0,0,0,0,0,0,0,0,0,0,0,0,0,0,0,0,0,0,0,0,0,0,0,0,0,0,0,0,0,0,0,0,0,0,0,0,0,0,0,0,0,0,0,0,0,0,0,0,0,0,0,0,0,0,0,0,0,0,0,0,0,0,0,0,0,0,0,0],"id":5,"left_children":[1,3,5,7,-1,9,11,13,15,17,19,21,23,25,27,29,31,33,35,37,39,41,43,45,47,49,51,53,55,57,59,61,63,65,67,-1,-1,69,-1,71,73,75,77,79,-1,81,-1,83,-1,-1,-1,-1,-1,-1,-1,-1,-1,-1,-1,-1,-1,-1,-1,-1,-1,-1,-1,-1,-1,-1,-1,-1,-1,-1,-1,-1,-1,-1,-1,-1,-1,-1,-1,-1,-1],"loss_changes":[3.6077516E4,2.1318576E4,1.881443E4,2.0616738E4,0E0,4.2507266E3,1.7224078E3,1.5430083E4,6.28867E3,6.9973047E2,3.9267825E3,1.5501787E3,5.847271E2,1.7199113E4,6.95916E3,5.4096777E3,1.8195557E1,1.3717607E3,2.0664062E0,1.583064E2,7.4892084E2,1.1115552E3,1.6585327E1,2.5323853E1,5.4224884E1,2.4791266E4,8.750078E3,4.25217E3,3.4932227E3,5.1359277E3,2.1098633E0,4.6380615E-1,1.1358398E1,6.0951953E2,2.3717908E3,0E0,0E0,7.050171E-1,0E0,8.5000867E2,1.108646E3,4.7317734E3,3.5325042E3,9.703918E0,0E0,4.6751038E1,0E0,2.7115662E1,0E0,0E0,0E0,0E0,0E0,0E0,0E0,0E0,0E0,0E0,0E0,0E0,0E0,0E0,0E0,0E0,0E0,0E0,0E0,0E0,0E0,0E0,0E0,0E0,0E0,0E0,0E0,0E0,0E0,0E0,0E0,0E0,0E0,0E0,0E0,0E0,0E0],"parents":[2147483647,0,0,1,1,2,2,3,3,5,5,6,6,7,7,8,8,9,9,10,10,11,11,12,12,13,13,14,14,15,15,16,16,17,17,18,18,19,19,20,20,21,21,22,22,23,23,24,24,25,25,26,26,27,27,28,28,29,29,30,30,31,31,32,32,33,33,34,34,37,37,39,39,40,40,41,41,42,42,43,43,45,45,47,47],"right_children":[2,4,6,8,-1,10,12,14,16,18,20,22,24,26,28,30,32,34,36,38,40,42,44,46,48,50,52,54,56,58,60,62,64,66,68,-1,-1,70,-1,72,74,76,78,80,-1,82,-1,84,-1,-1,-1,-1,-1,-1,-1,-1,-1,-1,-1,-1,-1,-1,-1,-1,-1,-1,-1,-1,-1,-1,-1,-1,-1,-1,-1,-1,-1,-1,-1,-1,-1,-1,-1,-1,-1],"split_conditions":[2.314E1,1E0,2.2E1,1.705E1,3.3613065E-1,1E0,1E0,1E0,1E0,5.277E1,9.663E1,1E0,1.8675E2,1E0,2.523E3,1E0,1.884E1,4.79E1,1E0,2.441E1,1E1,1.0319E2,5.324E1,5.324E1,4E0,1E0,8.73E0,2.2E1,6.2E0,1.2E1,5.5E1,1.763E1,5.5E1,1.186E3,5.7E1,-3.3373234E-1,-3.4659138E-1,5.5E1,-3.346104E-1,5.5E1,1.166E3,5.324E1,1E0,4.689E1,-3.3295095E-1,4.689E1,-3.3316833E-1,3.91968E1,-6.7622405E-1,-3.40186E-1,3.0231658E-1,-1.4887942E-1,3.9259952E-1,-4.0091366E-1,2.3776796E-1,-3.3885416E-1,3.9024326E-1,-3.6599076E-1,2.748261E-1,-4.4473585E-1,-4.0717807E-1,-4.9232903E-1,-5.727165E-1,-7.0367527E-1,-5.996355E-1,-2.3179086E-1,-3.6780676E-1,-3.442777E-1,1.293097E-1,-7.2543573E-1,-5.9935284E-1,3.452527E-1,-3.746293E-1,1.7387043E-1,-2.4662451E-1,1.6279012E-1,-3.4304702E-1,-3.822401E-1,3.119156E-1,-4.0483427E-1,-5.8643466E-1,-3.7636873E-1,-6.319599E-1,-7.127657E-1,3.2291865E-1],"split_indices":[0,20,10,0,0,19,24,27,19,0,0,18,0,31,3,24,0,0,28,0,10,0,0,0,13,21,0,10,0,10,16,0,16,3,16,0,0,16,0,16,3,0,19,0,0,0,0,5,0,0,0,0,0,0,0,0,0,0,0,0,0,0,0,0,0,0,0,0,0,0,0,0,0,0,0,0,0,0,0,0,0,0,0,0,0],"split_type":[0,0,0,0,0,0,0,0,0,0,0,0,0,0,0,0,0,0,0,0,0,0,0,0,0,0,0,0,0,0,0,0,0,0,0,0,0,0,0,0,0,0,0,0,0,0,0,0,0,0,0,0,0,0,0,0,0,0,0,0,0,0,0,0,0,0,0,0,0,0,0,0,0,0,0,0,0,0,0,0,0,0,0,0,0],"sum_hessian":[1.9557739E5,1.2707956E5,6.849783E4,1.01228625E5,2.585094E4,5.017867E4,1.8319152E4,6.526231E4,3.5966316E4,4.3602816E4,6.575858E3,1.7258914E4,1.0602388E3,5.144928E4,1.3813026E4,3.5181664E4,7.846528E2,1.57705E4,2.7832316E4,2.396178E3,4.1796797E3,1.666716E4,5.917525E2,9.1660016E2,1.4363857E2,4.015342E4,1.1295861E4,3.8430535E3,9.969974E3,3.410242E4,1.0792451E3,2.404289E2,5.442239E2,1.1960086E4,3.8104133E3,2.5895877E4,1.9364401E3,1.2991873E2,2.2662593E3,1.7445557E3,2.435124E3,1.0617723E4,6.0494385E3,1.9863234E2,3.9312015E2,3.7218878E2,5.444114E2,1.3932466E2,4.3139086E0,3.3717496E4,6.4359253E3,4.3972827E3,6.898578E3,2.2192017E3,1.6238519E3,6.306557E2,9.339317E3,1.1646188E3,3.29378E4,6.1583405E2,4.63411E2,7.7059425E1,1.6336948E2,3.0549063E2,2.3873323E2,5.4872705E3,6.472816E3,1.8342902E3,1.9761232E3,7.318373E1,5.6734997E1,1.5825792E3,1.6197649E2,1.5486304E3,8.864936E2,8.552239E3,2.0654827E3,7.5280206E2,5.296636E3,1.589612E2,3.9671143E1,2.8513535E2,8.705343E1,1.403531E0,1.3792113E2],"tree_param":{"num_deleted":"0","num_feature":"32","num_nodes":"85","size_leaf_vector":"1"}},{"base_weights":[-5.645262E-3,2.5253505E-1,-5.803735E-1,7.3236786E-2,1.0845718E0,-8.677137E-1,1.909151E-1,-2.2023018E-1,5.7399845E-1,3.255673E-1,-2.960758E-1,-9.9733734E-1,-9.027998E-2,-8.13458E-1,3.678438E-1,-3.3501908E-1,8.652685E-1,1.856538E-1,8.542523E-1,-1.0317233E0,-4.2097533E-1,-3.2396337E-1,3.6368644E-1,4.244658E-1,-1.3184296E0,4.5146763E-1,-1.3826699E0,-5.626157E-1,1.5903679E-1,-5.093959E0,8.956811E-1,2.7188605E-1,-2.1584787E0,8.833934E-1,-2.0169206E0,-3.250837E-1,-5.8052176E-1,-3.248654E-1,5.6406194E-1,4.8878077E-1,-1.056262E0,1.0083797E0,-1.9666035E0,-1.355363E0,-3.415866E-1,5.2258885E-1,-1.1744876E0,-2.984409E0,-3.5027447E-1,-2.699403E-1,1.3982631E-1,1.3963714E-1,-2.8371012E-1,-2.307782E0,-3.1491512E-1,2.8527623E-1,-3.4236172E-1,1.0375837E-1,-6.4308035E-1,-3.8075453E-1,-7.5625324E-1,2.6735443E-1,-2.3336701E0,-6.373147E-1,-4.6238106E-1,1.6887564E-3,-3.4377623E-1,-3.240693E-1,3.533907E-1,-8.5337764E-1,1.6003549E-1,2.937497E-1,-4.7012806E-1,-5.7995415E-1,3.6207792E-1,-5.039085E-1,-9.188185E-1,-4.1643456E-1,-3.1777075E-1,2.6335346E-2,2.3044285E-1,-4.093521E-1,-3.2266364E-1,-3.7328783E-1,-1.7122506E0],"categories":[],"categories_nodes":[],"categories_segments":[],"categories_sizes":[],"default_left":[0,0,0,0,0,0,0,0,0,0,0,0,0,0,0,0,0,0,0,0,0,0,0,0,0,0,0,0,0,0,0,0,0,0,0,0,0,0,0,0,0,0,0,0,0,0,0,0,0,0,0,0,0,0,0,0,0,0,0,0,0,0,0,0,0,0,0,0,0,0,0,0,0,0,0,0,0,0,0,0,0,0,0,0,0],"id":6,"left_children":[1,3,5,7,9,11,13,15,17,-1,-1,19,21,23,25,27,29,31,33,35,37,-1,39,41,43,45,47,49,51,53,55,57,59,61,63,-1,65,-1,67,69,71,73,75,77,-1,79,81,83,-1,-1,-1,-1,-1,-1,-1,-1,-1,-1,-1,-1,-1,-1,-1,-1,-1,-1,-1,-1,-1,-1,-1,-1,-1,-1,-1,-1,-1,-1,-1,-1,-1,-1,-1,-1,-1],"loss_changes":[2.4360686E4,1.6899957E4,1.1278445E4,1.3696698E4,2.8216797E1,3.7363027E3,2.4550159E3,7.322491E3,3.7479111E3,0E0,0E0,6.29375E2,2.3812153E3,1.2940752E3,1.71997E3,5.976004E3,1.0231323E3,2.9187876E3,1.675375E3,7.0147656E2,1.1682601E3,0E0,6.4597253E2,8.400814E2,8.218506E0,1.2970115E3,1.8109094E2,1.2620774E4,5.6745386E3,2.9340216E2,6.303335E2,2.4889827E3,1.6190161E2,1.3428291E3,7.014038E0,0E0,1.0257812E3,0E0,7.2848047E2,4.9889392E2,3.0776877E2,2.8449393E2,3.2015045E1,1.0305908E1,0E0,1.146782E3,7.371155E0,2.903979E2,0E0,0E0,0E0,0E0,0E0,0E0,0E0,0E0,0E0,0E0,0E0,0E0,0E0,0E0,0E0,0E0,0E0,0E0,0E0,0E0,0E0,0E0,0E0,0E0,0E0,0E0,0E0,0E0,0E0,0E0,0E0,0E0,0E0,0E0,0E0,0E0,0E0],"parents":[2147483647,0,0,1,1,2,2,3,3,4,4,5,5,6,6,7,7,8,8,11,11,12,12,13,13,14,14,15,15,16,16,17,17,18,18,19,19,20,20,22,22,23,23,24,24,25,25,26,26,27,27,28,28,29,29,30,30,31,31,32,32,33,33,34,34,36,36,38,38,39,39,40,40,41,41,42,42,43,43,45,45,46,46,47,47],"right_children":[2,4,6,8,10,12,14,16,18,-1,-1,20,22,24,26,28,30,32,34,36,38,-1,40,42,44,46,48,50,52,54,56,58,60,62,64,-1,66,-1,68,70,72,74,76,78,-1,80,82,84,-1,-1,-1,-1,-1,-1,-1,-1,-1,-1,-1,-1,-1,-1,-1,-1,-1,-1,-1,-1,-1,-1,-1,-1,-1,-1,-1,-1,-1,-1,-1,-1,-1,-1,-1,-1,-1],"split_conditions":[2.569E1,1E0,2.2E1,2.2E1,2.441E1,1E0,4.689E1,1E0,1.535E1,3.255673E-1,-2.960758E-1,1E0,9.663E1,2.694E1,1E0,1.763E1,2.4E1,1E0,1E0,1E0,5.7E1,-3.2396337E-1,1.4107E2,4.4E1,1E0,1E0,5.324E1,1E0,5.7E1,1.823E1,1.823E1,1E0,6.75E0,1E0,2.314E1,-3.250837E-1,1.6E1,-3.248654E-1,1.2E1,3.1E1,1E0,-8.698699E1,1E0,1E0,-3.415866E-1,5.2E1,5.324E1,5.5E1,-3.5027447E-1,-2.699403E-1,1.3982631E-1,1.3963714E-1,-2.8371012E-1,-2.307782E0,-3.1491512E-1,2.8527623E-1,-3.4236172E-1,1.0375837E-1,-6.4308035E-1,-3.8075453E-1,-7.5625324E-1,2.6735443E-1,-2.3336701E0,-6.373147E-1,-4.6238106E-1,1.6887564E-3,-3.4377623E-1,-3.240693E-1,3.533907E-1,-8.5337764E-1,1.6003549E-1,2.937497E-1,-4.7012806E-1,-5.7995415E-1,3.6207792E-1,-5.039085E-1,-9.188185E-1,-4.1643456E-1,-3.1777075E-1,2.6335346E-2,2.3044285E-1,-4.093521E-1,-3.2266364E-1,-3.7328783E-1,-1.7122506E0],"split_indices":[0,20,10,10,0,19,0,21,0,0,0,27,0,0,23,0,16,28,18,28,16,0,0,16,25,25,0,27,16,0,0,23,0,27,0,0,10,0,10,16,10,6,28,24,0,16,0,16,0,0,0,0,0,0,0,0,0,0,0,0,0,0,0,0,0,0,0,0,0,0,0,0,0,0,0,0,0,0,0,0,0,0,0,0,0],"split_type":[0,0,0,0,0,0,0,0,0,0,0,0,0,0,0,0,0,0,0,0,0,0,0,0,0,0,0,0,0,0,0,0,0,0,0,0,0,0,0,0,0,0,0,0,0,0,0,0,0,0,0,0,0,0,0,0,0,0,0,0,0,0,0,0,0,0,0,0,0,0,0,0,0,0,0,0,0,0,0,0,0,0,0,0,0],"sum_hessian":[1.6417181E5,1.1328314E5,5.0888664E4,9.320022E4,2.0082924E4,3.707603E4,1.3812636E4,5.8763152E4,3.4437066E4,2.0077076E4,5.847325E0,3.1777412E4,5.2986177E3,2.0682395E3,1.17443955E4,5.3143992E4,5.619159E3,1.4435547E4,2.000152E4,2.9987555E4,1.7898584E3,1.6658547E3,3.6327627E3,5.9928015E2,1.4689594E3,1.1209642E4,5.347539E2,3.6383207E4,1.6760787E4,2.768601E1,5.591473E3,1.3924209E4,5.1133783E2,1.9801238E4,2.0028127E2,2.6893363E4,3.0941912E3,1.0704532E3,7.194051E2,3.339239E3,2.9352386E2,4.821214E2,1.1715875E2,1.2132201E3,2.5573921E2,1.0740518E4,4.6912445E2,6.1783546E1,4.7297037E2,2.7401691E4,8.981516E3,1.3121783E4,3.6390032E3,1.6306244E1,1.1379767E1,5.4443574E3,1.4711588E2,1.3511278E4,4.1293106E2,1.4933954E2,3.6199826E2,1.9784348E4,1.6890387E1,1.60544E2,3.9737274E1,1.5197018E3,1.5744894E3,1.9536868E2,5.240364E2,4.3328796E1,3.2959102E3,5.870295E1,2.348209E2,2.9931772E1,4.5218964E2,9.486135E1,2.2297398E1,1.0890786E3,1.241415E2,3.8769424E3,6.863575E3,1.5625131E2,3.1287314E2,3.8584282E1,2.3199265E1],"tree_param":{"num_deleted":"0","num_feature":"32","num_nodes":"85","size_leaf_vector":"1"}},{"base_weights":[-6.031108E-3,2.3282047E-1,-5.008578E-1,7.802252E-2,1.0595962E0,-7.9913986E-1,1.7477293E-1,-1.5304692E-1,5.0430685E-1,3.1832555E-1,1.0006322E0,-9.161943E-1,-1.3909006E-1,-3.1776186E-2,5.895558E-1,-3.2665938E-1,5.995122E-1,6.7858785E-1,-2.3853016E-1,-8.225071E-1,3.1040782E-1,-6.996184E-1,-1.0609149E0,-8.9907473E-1,4.2943114E-1,2.7999926E-1,-1.0106944E0,-9.1617286E-1,9.3175024E-1,-6.3834184E-1,4.429471E-1,-2.5922328E-1,1.2789776E0,7.116635E-1,-3.0592465E0,-1.2207768E0,6.2130785E-1,-4.4403648E-1,-1.181007E0,-3.1744066E-1,-3.2780272E-1,4.8416448E-1,-1.0519761E0,5.6165105E-1,-9.5108277E-1,-1.9781516E-1,7.571379E-1,-1.1837885E0,-2.5492884E-2,-1.1748499E0,4.7812343E-1,9.603112E-1,-4.6241796E-1,-2.6233083E-1,2.633337E-1,1.9618677E-1,-4.0599903E-1,-2.753295E-1,8.928241E-2,2.3698267E-1,5.3802896E-1,2.2808802E-1,-5.175965E-1,-9.733644E-1,-5.2407485E-1,-4.3640187E-1,3.131325E-1,-6.284572E-1,2.2822319E-1,-2.896826E-1,-1.4386455E-2,-5.3677773E-1,-3.2750478E-1,3.2344836E-1,-3.2483113E-1,-2.584525E-1,-7.012651E-1,1.3728864E-1,5.4503924E-1,2.6763406E-1,-4.2319855E-1,1.0362626E-1,-3.16561E-1,-3.8576823E-1,2.7166906E-1,-3.467756E-1,-3.836392E-1,2.1605162E-1,-5.4441816E-1,-3.4403083E-1,-3.8234508E-1,-3.43205E-1,2.4898864E-1,-9.101885E-1,2.890745E-1],"categories":[],"categories_nodes":[],"categories_segments":[],"categories_sizes":[],"default_left":[0,0,0,0,0,0,0,0,0,0,0,0,0,0,0,0,0,0,0,0,0,0,0,0,0,0,0,0,0,0,0,0,0,0,0,0,0,0,0,0,0,0,0,0,0,0,0,0,0,0,0,0,0,0,0,0,0,0,0,0,0,0,0,0,0,0,0,0,0,0,0,0,0,0,0,0,0,0,0,0,0,0,0,0,0,0,0,0,0,0,0,0,0,0,0],"id":7,"left_children":[1,3,5,7,9,11,13,15,17,-1,19,21,23,25,27,29,31,33,35,-1,-1,37,39,41,43,45,47,49,51,53,55,57,59,61,63,65,67,69,71,-1,-1,73,75,77,79,81,83,85,87,89,91,93,-1,-1,-1,-1,-1,-1,-1,-1,-1,-1,-1,-1,-1,-1,-1,-1,-1,-1,-1,-1,-1,-1,-1,-1,-1,-1,-1,-1,-1,-1,-1,-1,-1,-1,-1,-1,-1,-1,-1,-1,-1,-1,-1],"loss_changes":[1.6522404E4,1.2066729E4,9.171861E3,7.822696E3,2.4414062E-1,2.439207E3,1.1942578E3,6.72901E3,3.6142686E3,0E0,5.1752075E1,8.397637E2,2.0556804E3,2.8406655E3,2.3885068E3,1.0038438E4,5.633453E3,2.797667E3,4.48181E3,0E0,0E0,1.321416E3,2.6367188E-1,4.311184E2,4.973661E2,1.609549E3,3.833733E2,3.1023853E2,2.6822314E2,1.0662431E4,4.573226E3,1.5643862E3,1.3546084E3,2.6576084E3,4.2607544E1,1.313459E3,1.0733269E3,1.4501599E3,2.0046533E2,0E0,0E0,1.9042574E2,4.469735E2,3.235683E2,2.0310226E2,1.6435482E3,1.072305E3,3.585205E0,4.5092294E2,5.6555176E-1,7.804178E1,5.1698486E1,0E0,0E0,0E0,0E0,0E0,0E0,0E0,0E0,0E0,0E0,0E0,0E0,0E0,0E0,0E0,0E0,0E0,0E0,0E0,0E0,0E0,0E0,0E0,0E0,0E0,0E0,0E0,0E0,0E0,0E0,0E0,0E0,0E0,0E0,0E0,0E0,0E0,0E0,0E0,0E0,0E0,0E0,0E0],"parents":[2147483647,0,0,1,1,2,2,3,3,4,4,5,5,6,6,7,7,8,8,10,10,11,11,12,12,13,13,14,14,15,15,16,16,17,17,18,18,21,21,22,22,23,23,24,24,25,25,26,26,27,27,28,28,29,29,30,30,31,31,32,32,33,33,34,34,35,35,36,36,37,37,38,38,41,41,42,42,43,43,44,44,45,45,46,46,47,47,48,48,49,49,50,50,51,51],"right_children":[2,4,6,8,10,12,14,16,18,-1,20,22,24,26,28,30,32,34,36,-1,-1,38,40,42,44,46,48,50,52,54,56,58,60,62,64,66,68,70,72,-1,-1,74,76,78,80,82,84,86,88,90,92,94,-1,-1,-1,-1,-1,-1,-1,-1,-1,-1,-1,-1,-1,-1,-1,-1,-1,-1,-1,-1,-1,-1,-1,-1,-1,-1,-1,-1,-1,-1,-1,-1,-1,-1,-1,-1,-1,-1,-1,-1,-1,-1,-1],"split_conditions":[2.314E1,1E0,2.2E1,1.705E1,2.187E1,1E0,1.0319E2,1E0,5.5E1,3.1832555E-1,5.6E1,5.277E1,1.0817E2,5.324E1,1E0,1E0,8.88E0,1E0,2.307E3,-8.225071E-1,3.1040782E-1,1.97E3,1E0,3E0,1.4107E2,4.79E1,9.566E1,1.8675E2,1.4974E2,1E0,9.16E0,2.2E1,1.01E1,1E0,2.2E1,1E0,6E1,4.03928E1,2.441E1,-3.1744066E-1,-3.2780272E-1,5.5E1,9.766E1,9.2E1,1E0,2.694E1,5.5E1,1E0,3.9E1,1E0,1E0,1E0,-4.6241796E-1,-2.6233083E-1,2.633337E-1,1.9618677E-1,-4.0599903E-1,-2.753295E-1,8.928241E-2,2.3698267E-1,5.3802896E-1,2.2808802E-1,-5.175965E-1,-9.733644E-1,-5.2407485E-1,-4.3640187E-1,3.131325E-1,-6.284572E-1,2.2822319E-1,-2.896826E-1,-1.4386455E-2,-5.3677773E-1,-3.2750478E-1,3.2344836E-1,-3.2483113E-1,-2.584525E-1,-7.012651E-1,1.3728864E-1,5.4503924E-1,2.6763406E-1,-4.2319855E-1,1.0362626E-1,-3.16561E-1,-3.8576823E-1,2.7166906E-1,-3.467756E-1,-3.836392E-1,2.1605162E-1,-5.4441816E-1,-3.4403083E-1,-3.8234508E-1,-3.43205E-1,2.4898864E-1,-9.101885E-1,2.890745E-1],"split_indices":[0,20,10,0,0,19,0,31,16,0,16,0,0,0,19,27,0,27,3,0,0,3,28,10,0,0,0,0,0,21,0,10,0,19,10,21,16,1,0,0,0,16,0,16,10,0,16,19,16,28,24,12,0,0,0,0,0,0,0,0,0,0,0,0,0,0,0,0,0,0,0,0,0,0,0,0,0,0,0,0,0,0,0,0,0,0,0,0,0,0,0,0,0,0,0],"split_type":[0,0,0,0,0,0,0,0,0,0,0,0,0,0,0,0,0,0,0,0,0,0,0,0,0,0,0,0,0,0,0,0,0,0,0,0,0,0,0,0,0,0,0,0,0,0,0,0,0,0,0,0,0,0,0,0,0,0,0,0,0,0,0,0,0,0,0,0,0,0,0,0,0,0,0,0,0,0,0,0,0,0,0,0,0,0,0,0,0,0,0,0,0,0,0],"sum_hessian":[1.3979314E5,9.428334E4,4.5509797E4,7.9415414E4,1.4867924E4,3.15713E4,1.3938497E4,5.1500156E4,2.7915262E4,1.4485171E4,3.827531E2,2.6815416E4,4.755884E3,9.305545E3,4.632952E3,4.184682E4,9.653334E3,2.261056E4,5.3047007E3,2.7351952E0,3.800179E2,1.0743492E4,1.6071924E4,2.0349855E3,2.7208982E3,7.058272E3,2.2472734E3,8.576095E2,3.7753425E3,2.978456E4,1.2062261E4,4.264415E3,5.388919E3,2.2413041E4,1.975203E2,2.4759026E3,2.8287979E3,7.0188965E3,3.7245955E3,1.4810209E4,1.2617153E3,2.0233873E2,1.8326467E3,2.4836204E3,2.3727773E2,3.5269312E3,3.5313408E3,1.9112726E3,3.3600076E2,7.2353326E2,1.3407623E2,3.7328457E3,4.2496807E1,2.5771742E4,4.0128188E3,1.0794828E4,1.2674333E3,1.9534734E3,2.3109414E3,2.764006E3,2.6249128E3,2.1975215E4,4.3782635E2,1.7179103E2,2.5729273E1,2.2444414E3,2.3146129E2,1.374425E2,2.6913552E3,3.0289055E3,3.9899912E3,4.7449622E2,3.250099E3,1.4694606E2,5.539266E1,1.5976176E3,2.3502927E2,2.2947998E3,1.8882053E2,4.7167152E1,1.9011057E2,2.1593667E3,1.3675646E3,2.3865567E2,3.292685E3,1.48796E3,4.2331265E2,2.3758466E2,9.8416115E1,5.7420917E2,1.493241E2,2.3496218E1,1.10580025E2,2.2957146E0,3.73055E3],"tree_param":{"num_deleted":"0","num_feature":"32","num_nodes":"95","size_leaf_vector":"1"}},{"base_weights":[-5.4408656E-3,1.8142751E-1,-4.9359378E-1,4.915257E-2,1.0415593E0,-7.635203E-1,1.3726035E-1,-1.8606055E-1,4.5755208E-1,1.0422887E0,-2.617964E-1,-9.1187304E-1,-6.576696E-2,-6.624481E-1,2.7285528E-1,4.5737988E-1,-3.1132457E-1,5.049061E-1,-1.3844643E0,3.1369892E-1,1.0125234E0,-9.892332E-1,-3.349242E-1,-3.1315058E-1,2.505733E-1,2.6413906E-1,-1.160576E0,7.0750034E-1,5.9247963E-2,9.44615E-1,-1.4870587E-1,-6.347951E-1,4.220743E-2,5.485311E-1,-1.4521785E0,-3.5152003E-1,-1.4151632E0,7.9355025E-1,1.0229757E0,-3.138475E-1,-2.549359E-1,-1.1010635E0,2.4419455E-1,8.002676E-1,-3.2479547E-2,7.84012E-1,-1.6079037E0,-1.1769845E0,-3.2023913E-1,8.1779766E-1,-1.6477026E0,-8.82167E-1,6.419614E-1,3.355522E-1,-4.1332808E-1,-3.7989944E-1,3.134792E-1,-2.9052222E-1,-3.583696E-3,-4.6696982E-1,3.911149E-2,1.7725284E-1,-4.1075605E-1,-4.2158654E-1,-5.927965E-1,-4.1908932E-1,-4.8788354E-1,-1.5148528E0,2.9598004E-1,3.1305474E-1,2.9023853E-1,-3.144374E-1,2.0710725E-1,-3.4214148E-1,-3.1969333E-1,-3.240097E-1,2.8861427E-1,3.2310513E-1,-3.6414868E-1,1.20399915E-1,-2.0816627E-1,2.9928228E-1,-5.862811E-1,-5.061212E-1,-3.4413376E-1,-3.572253E-1,-3.0643842E-1,-3.5294196E-1,2.6705396E-1,-3.6544412E-1,-7.054776E-1,5.0018106E-2,-3.0888057E-1,-3.6058328E-1,2.5513858E-1],"categories":[],"categories_nodes":[],"categories_segments":[],"categories_sizes":[],"default_left":[0,0,0,0,0,0,0,0,0,0,0,0,0,0,0,0,0,0,0,0,0,0,0,0,0,0,0,0,0,0,0,0,0,0,0,0,0,0,0,0,0,0,0,0,0,0,0,0,0,0,0,0,0,0,0,0,0,0,0,0,0,0,0,0,0,0,0,0,0,0,0,0,0,0,0,0,0,0,0,0,0,0,0,0,0,0,0,0,0,0,0,0,0,0,0],"id":8,"left_children":[1,3,5,7,9,11,13,15,17,19,-1,21,23,25,27,29,31,33,35,-1,37,39,41,-1,43,45,47,49,51,53,55,57,59,61,63,-1,65,67,69,-1,71,73,75,77,79,81,83,85,-1,87,89,91,93,-1,-1,-1,-1,-1,-1,-1,-1,-1,-1,-1,-1,-1,-1,-1,-1,-1,-1,-1,-1,-1,-1,-1,-1,-1,-1,-1,-1,-1,-1,-1,-1,-1,-1,-1,-1,-1,-1,-1,-1,-1,-1],"loss_changes":[1.0907884E4,9.838471E3,5.6370205E3,7.1998027E3,1.700293E1,2.399753E3,1.0759171E3,3.833422E3,2.3899453E3,9.863281E-2,0E0,8.529863E2,1.2582874E3,6.642587E2,7.8754236E2,2.2888892E3,4.552576E3,2.2808418E3,2.8269043E0,0E0,1.9456787E0,7.0438086E2,1.0038564E3,0E0,4.781784E2,4.915341E2,1.7333984E-1,7.274486E2,3.1212961E3,1.7366956E3,4.610182E3,4.319715E3,2.6814475E3,2.1205405E3,1.1531982E1,0E0,1.5625E-2,7.192341E1,2.9748535E-1,0E0,9.1109467E2,1.4416504E-1,1.2263767E3,5.8356506E2,5.8260016E2,2.3294614E2,2.0708923E0,4.6606445E-1,0E0,3.865713E2,3.5044037E1,3.365819E2,1.3521517E3,0E0,0E0,0E0,0E0,0E0,0E0,0E0,0E0,0E0,0E0,0E0,0E0,0E0,0E0,0E0,0E0,0E0,0E0,0E0,0E0,0E0,0E0,0E0,0E0,0E0,0E0,0E0,0E0,0E0,0E0,0E0,0E0,0E0,0E0,0E0,0E0,0E0,0E0,0E0,0E0,0E0,0E0],"parents":[2147483647,0,0,1,1,2,2,3,3,4,4,5,5,6,6,7,7,8,8,9,9,11,11,12,12,13,13,14,14,15,15,16,16,17,17,18,18,20,20,21,21,22,22,24,24,25,25,26,26,27,27,28,28,29,29,30,30,31,31,32,32,33,33,34,34,36,36,37,37,38,38,40,40,41,41,42,42,43,43,44,44,45,45,46,46,47,47,49,49,50,50,51,51,52,52],"right_children":[2,4,6,8,10,12,14,16,18,20,-1,22,24,26,28,30,32,34,36,-1,38,40,42,-1,44,46,48,50,52,54,56,58,60,62,64,-1,66,68,70,-1,72,74,76,78,80,82,84,86,-1,88,90,92,94,-1,-1,-1,-1,-1,-1,-1,-1,-1,-1,-1,-1,-1,-1,-1,-1,-1,-1,-1,-1,-1,-1,-1,-1,-1,-1,-1,-1,-1,-1,-1,-1,-1,-1,-1,-1,-1,-1,-1,-1,-1,-1],"split_conditions":[2.569E1,1E0,2.2E1,2.2E1,2.441E1,1E0,4.689E1,4E0,1E0,5E0,-2.617964E-1,1E0,9.663E1,2.694E1,5.18E1,5.5E1,-8.396681E1,1E0,6.2E0,3.1369892E-1,-1.006806E2,1E0,1.3517588E9,-3.1315058E-1,1E1,4.4E1,1E0,2.471E3,1E0,1E0,1E0,1.884E1,2.8E1,1E0,2.314E1,-3.5152003E-1,2.441E1,4.18114E1,1.823E1,-3.138475E-1,5.7E1,5.277E1,5.7E1,5.5E1,1.166E3,1.3486819E9,1E0,1E0,-3.2023913E-1,5.5E1,5.5E1,5.324E1,9.566E1,3.355522E-1,-4.1332808E-1,-3.7989944E-1,3.134792E-1,-2.9052222E-1,-3.583696E-3,-4.6696982E-1,3.911149E-2,1.7725284E-1,-4.1075605E-1,-4.2158654E-1,-5.927965E-1,-4.1908932E-1,-4.8788354E-1,-1.5148528E0,2.9598004E-1,3.1305474E-1,2.9023853E-1,-3.144374E-1,2.0710725E-1,-3.4214148E-1,-3.1969333E-1,-3.240097E-1,2.8861427E-1,3.2310513E-1,-3.6414868E-1,1.20399915E-1,-2.0816627E-1,2.9928228E-1,-5.862811E-1,-5.061212E-1,-3.4413376E-1,-3.572253E-1,-3.0643842E-1,-3.5294196E-1,2.6705396E-1,-3.6544412E-1,-7.054776E-1,5.0018106E-2,-3.0888057E-1,-3.6058328E-1,2.5513858E-1],"split_indices":[0,20,10,10,0,19,0,10,24,10,0,28,0,0,0,16,6,19,0,0,2,27,4,0,10,16,25,3,19,26,21,0,16,30,0,0,0,1,0,0,16,0,16,16,3,4,24,24,0,16,16,0,0,0,0,0,0,0,0,0,0,0,0,0,0,0,0,0,0,0,0,0,0,0,0,0,0,0,0,0,0,0,0,0,0,0,0,0,0,0,0,0,0,0,0],"split_type":[0,0,0,0,0,0,0,0,0,0,0,0,0,0,0,0,0,0,0,0,0,0,0,0,0,0,0,0,0,0,0,0,0,0,0,0,0,0,0,0,0,0,0,0,0,0,0,0,0,0,0,0,0,0,0,0,0,0,0,0,0,0,0,0,0,0,0,0,0,0,0,0,0,0,0,0,0,0,0,0,0,0,0,0,0,0,0,0,0,0,0,0,0,0,0],"sum_hessian":[1.19575336E5,8.647335E4,3.310198E4,7.494849E4,1.152486E4,2.3182547E4,9.919434E3,4.7558344E4,2.739015E4,1.1520926E4,3.9342458E0,1.911756E4,4.0649856E3,1.4374995E3,8.481935E3,7.7494243E3,3.9808918E4,2.6704367E4,6.857827E2,1.031717E4,1.2037555E3,1.6856627E4,2.2609338E3,9.9287897E2,3.0721064E3,5.0276202E2,9.3473755E2,2.794142E3,5.687792E3,4.2956074E3,3.453817E3,2.0787875E4,1.9021043E4,2.612279E4,5.8157806E2,9.142347E1,5.9435925E2,5.8345284E1,1.1454102E3,1.5643469E4,1.2131584E3,9.7291907E2,1.2880148E3,1.0435957E3,2.0285109E3,3.9394366E2,1.0881837E2,7.847972E2,1.4994034E2,2.669766E3,1.2437597E2,2.1743926E3,3.5133994E3,3.9968538E3,2.9875354E2,1.7836702E3,1.6701469E3,1.3536738E4,7.2511367E3,9.9322394E2,1.802782E4,2.5559547E4,5.632424E2,5.371745E2,4.4403603E1,5.542021E2,4.015714E1,1.0614595E0,5.7283825E1,8.2307574E2,3.223344E2,6.595914E2,5.535671E2,4.4575833E2,5.2716077E2,4.525989E2,8.354159E2,9.1793146E2,1.2566426E2,1.2252631E3,8.0324774E2,3.660279E2,2.791576E1,9.059269E1,1.8225674E1,7.1486365E2,6.9933556E1,9.2971214E1,2.576795E3,7.893543E1,4.5440536E1,2.679546E2,1.9064379E3,3.564364E2,3.1569631E3],"tree_param":{"num_deleted":"0","num_feature":"32","num_nodes":"95","size_leaf_vector":"1"}},{"base_weights":[-7.6667564E-3,1.660244E-1,-4.3166152E-1,5.4506976E-2,1.0274652E0,-6.860385E-1,1.288138E-1,-8.068303E-2,5.909345E-1,3.089759E-1,9.323172E-1,-8.0873454E-1,-1.1415641E-1,-4.7826573E-2,5.112483E-1,-7.709263E-1,3.078386E-2,1.1603559E0,4.652564E-1,-6.326481E-1,2.9521036E-1,-5.457534E-1,-3.1010476E-1,-1.0978571E0,2.1081364E-1,1.9342975E-1,-9.258792E-1,-6.916358E-1,7.956449E-1,-1.0734843E0,8.528702E-2,9.069019E-2,-1.2784493E0,4.072163E0,8.005201E-1,-8.3222294E-1,7.0312405E-1,-2.6821178E-1,-1.0913852E0,-1.5036466E0,-3.111835E-1,4.0770313E-1,-5.49464E-1,-1.7498386E-1,6.1497146E-1,5.814495E-1,-1.0310535E0,-3.2727438E-1,6.3686293E-1,8.3404756E-1,-4.3031785E-1,-3.1713867E-1,-3.471935E-1,1.0517843E0,-5.5349585E-2,4.3389868E-2,-4.2595455E-1,-3.720128E-1,-4.2259166E-1,1.8368979E0,-3.224531E-1,-3.2576802E-1,2.963034E-1,-3.2137807E-2,-5.674201E-1,2.6007667E-1,-1.083414E-1,-2.4975412E-1,1.9980341E-2,-3.4208608E-1,1.1919559E-1,-4.7703835E-1,-3.8879842E-1,1.6937958E-1,-3.4448192E-1,1.8610215E-1,-5.432028E-1,3.313933E-2,-4.430372E-1,2.2066452E-1,-4.8967084E-1,-3.7304252E-1,3.1903756E-1,-3.396393E-1,8.664172E-3,2.57337E-1,-4.0170345E-1,-1.2380067E0,2.515665E-1],"categories":[],"categories_nodes":[],"categories_segments":[],"categories_sizes":[],"default_left":[0,0,0,0,0,0,0,0,0,0,0,0,0,0,0,0,0,0,0,0,0,0,0,0,0,0,0,0,0,0,0,0,0,0,0,0,0,0,0,0,0,0,0,0,0,0,0,0,0,0,0,0,0,0,0,0,0,0,0,0,0,0,0,0,0,0,0,0,0,0,0,0,0,0,0,0,0,0,0,0,0,0,0,0,0,0,0,0,0],"id":9,"left_children":[1,3,5,7,9,11,13,15,17,-1,19,21,23,25,27,29,31,33,35,-1,-1,37,-1,39,41,43,45,47,49,51,53,55,57,59,61,63,65,67,69,71,-1,73,75,77,79,81,83,-1,85,87,-1,-1,-1,-1,-1,-1,-1,-1,-1,-1,-1,-1,-1,-1,-1,-1,-1,-1,-1,-1,-1,-1,-1,-1,-1,-1,-1,-1,-1,-1,-1,-1,-1,-1,-1,-1,-1,-1,-1],"loss_changes":[7.582676E3,7.01676E3,4.26611E3,4.6899727E3,9.9609375E-1,1.444041E3,6.310893E2,3.9742695E3,9.31062E2,0E0,3.6845795E1,1.001874E3,1.1628163E3,1.3540443E3,1.01028577E3,1.860585E3,3.4882288E3,2.4621726E3,3.2923386E3,0E0,0E0,1.1830808E3,0E0,2.0644287E1,4.0955914E2,7.7885144E2,2.1901184E2,3.003624E2,2.0567505E2,6.051758E0,1.7320237E3,3.4655332E3,7.9833984E0,2.7357979E3,7.408916E2,1.2692179E3,1.5716499E3,9.789307E2,1.9223584E2,6.225586E-3,0E0,5.310399E2,8.3164136E2,9.947819E2,6.3492444E2,8.092882E1,1.3804626E2,0E0,5.841429E1,5.595935E1,0E0,0E0,0E0,0E0,0E0,0E0,0E0,0E0,0E0,0E0,0E0,0E0,0E0,0E0,0E0,0E0,0E0,0E0,0E0,0E0,0E0,0E0,0E0,0E0,0E0,0E0,0E0,0E0,0E0,0E0,0E0,0E0,0E0,0E0,0E0,0E0,0E0,0E0,0E0],"parents":[2147483647,0,0,1,1,2,2,3,3,4,4,5,5,6,6,7,7,8,8,10,10,11,11,12,12,13,13,14,14,15,15,16,16,17,17,18,18,21,21,23,23,24,24,25,25,26,26,27,27,28,28,29,29,30,30,31,31,32,32,33,33,34,34,35,35,36,36,37,37,38,38,39,39,41,41,42,42,43,43,44,44,45,45,46,46,48,48,49,49],"right_children":[2,4,6,8,10,12,14,16,18,-1,20,22,24,26,28,30,32,34,36,-1,-1,38,-1,40,42,44,46,48,50,52,54,56,58,60,62,64,66,68,70,72,-1,74,76,78,80,82,84,-1,86,88,-1,-1,-1,-1,-1,-1,-1,-1,-1,-1,-1,-1,-1,-1,-1,-1,-1,-1,-1,-1,-1,-1,-1,-1,-1,-1,-1,-1,-1,-1,-1,-1,-1,-1,-1,-1,-1,-1,-1],"split_conditions":[2.314E1,1E0,2.2E1,1E0,2.187E1,1E0,1.0319E2,6.2E0,6.89E0,3.089759E-1,5.6E1,5.277E1,9.663E1,5.324E1,1E0,1E0,1E0,1.5E1,1.535E1,-6.326481E-1,2.9521036E-1,1.762E3,-3.1010476E-1,2.441E1,1E0,4.79E1,1.3264425E9,1.8675E2,1.4974E2,2.2E1,-1.2136168E2,1E0,1.884E1,6E0,2.2E1,9.88E0,5.4E1,4.03928E1,4.6870255E1,5.7E1,-3.111835E-1,1.9E1,4.75E2,1E0,2.471E3,5.3E1,9.977E1,-3.2727438E-1,1.3460495E9,7.3E1,-4.3031785E-1,-3.1713867E-1,-3.471935E-1,1.0517843E0,-5.5349585E-2,4.3389868E-2,-4.2595455E-1,-3.720128E-1,-4.2259166E-1,1.8368979E0,-3.224531E-1,-3.2576802E-1,2.963034E-1,-3.2137807E-2,-5.674201E-1,2.6007667E-1,-1.083414E-1,-2.4975412E-1,1.9980341E-2,-3.4208608E-1,1.1919559E-1,-4.7703835E-1,-3.8879842E-1,1.6937958E-1,-3.4448192E-1,1.8610215E-1,-5.432028E-1,3.313933E-2,-4.430372E-1,2.2066452E-1,-4.8967084E-1,-3.7304252E-1,3.1903756E-1,-3.396393E-1,8.664172E-3,2.57337E-1,-4.0170345E-1,-1.2380067E0,2.515665E-1],"split_indices":[0,20,10,25,0,19,0,0,0,0,16,0,0,0,19,31,19,10,0,0,0,3,0,0,17,0,4,0,0,10,6,26,0,11,10,0,16,1,5,16,0,10,3,17,3,12,0,0,4,3,0,0,0,0,0,0,0,0,0,0,0,0,0,0,0,0,0,0,0,0,0,0,0,0,0,0,0,0,0,0,0,0,0,0,0,0,0,0,0],"split_type":[0,0,0,0,0,0,0,0,0,0,0,0,0,0,0,0,0,0,0,0,0,0,0,0,0,0,0,0,0,0,0,0,0,0,0,0,0,0,0,0,0,0,0,0,0,0,0,0,0,0,0,0,0,0,0,0,0,0,0,0,0,0,0,0,0,0,0,0,0,0,0,0,0,0,0,0,0,0,0,0,0,0,0,0,0,0,0,0,0],"sum_hessian":[1.0296176E5,7.3040875E4,2.992088E4,6.46701E4,8.370775E3,2.058016E4,9.340722E3,5.1653324E4,1.3016776E4,8.1506997E3,2.2007516E2,1.6944367E4,3.6357915E3,6.390108E3,2.9506135E3,7.180869E3,4.4472457E4,2.3520227E3,1.0664754E4,3.0148711E0,2.1706029E2,7.813373E3,9.130994E3,9.022517E2,2.7335398E3,5.013393E3,1.376715E3,5.6394006E2,2.3866736E3,5.3057397E3,1.8751295E3,4.2527465E4,1.9449902E3,2.5755548E2,2.094467E3,1.6518777E3,9.012876E3,5.18E3,2.633373E3,1.1410357E2,7.8814813E2,2.1716184E3,5.619214E2,2.6755952E3,2.3377976E3,8.949991E1,1.2872151E3,4.3375446E2,1.3018561E2,2.3468848E3,3.978882E1,4.450941E3,8.547988E2,1.362022E2,1.7389274E3,4.1062008E4,1.4654575E3,1.510044E3,4.349463E2,1.8403639E2,7.351909E1,1.8861038E2,1.9058568E3,9.8123804E2,6.7063965E2,7.810903E3,1.2019731E3,1.9283782E3,3.251622E3,2.5498481E3,8.352476E1,7.585462E1,3.824895E1,1.9732815E3,1.983369E2,2.917886E2,2.701328E2,2.195173E3,4.8042233E2,2.2193862E3,1.1841144E2,1.8369968E1,7.1129944E1,1.1750881E3,1.1212687E2,1.17602104E2,1.2583496E1,1.3002796E0,2.3455845E3],"tree_param":{"num_deleted":"0","num_feature":"32","num_nodes":"89","size_leaf_vector":"1"}},{"base_weights":[-1.3221169E-2,1.1172041E-1,-4.409096E-1,1.9944519E-2,1.016474E0,-6.5317976E-1,1.5243053E-1,7.115174E-2,-1.1532544E0,1.0180187E0,-2.6175472E-1,-2.7272755E-1,-1.0085617E0,-1.0851812E0,4.0457985E-1,1.2231665E-1,-1.2305617E0,-1.0950892E0,-1.6932315E0,3.0715272E-1,9.674716E-1,-9.894149E-1,3.7039885E-1,-1.0302163E0,-1.9067734E-2,-3.0664405E-1,-1.1700066E0,4.5136604E-1,-3.7078637E-1,1.7811112E-1,-1.2104846E0,-1.1411136E0,-1.3315022E0,-1.0716987E0,-1.2157308E0,-1.8815371E0,-3.3702743E-1,3.0609202E-1,8.5937893E-1,-4.965646E-1,-1.0654066E0,-3.165879E-1,6.7116046E-1,-3.0740416E-1,-3.1930602E-1,-3.0737746E-1,7.060337E-1,-1.2456213E0,-3.2710284E-1,2.1614002E-1,7.3217064E-1,6.920022E-2,-4.1771823E-1,-3.4195033E-1,-5.4321223E-1,-3.2651833E-1,-3.7898198E-1,-4.240925E-1,-3.5151118E-1,-3.0961648E-1,-3.2854116E-1,-3.0740628E-1,-3.8194445E-1,-5.8935237E-1,-4.477226E-1,-7.8373104E-1,2.763487E-1,-3.1470448E-1,2.3289278E-1,-3.1527415E-1,-3.816587E-1,-3.1527394E-1,2.4957447E-1,2.666591E-1,-4.371303E-1,-3.3914432E-1,-4.3474454E-1,7.898913E-2,-7.616829E-1,2.3173784E-1,-4.156936E-2],"categories":[],"categories_nodes":[],"categories_segments":[],"categories_sizes":[],"default_left":[0,0,0,0,0,0,0,0,0,0,0,0,0,0,0,0,0,0,0,0,0,0,0,0,0,0,0,0,0,0,0,0,0,0,0,0,0,0,0,0,0,0,0,0,0,0,0,0,0,0,0,0,0,0,0,0,0,0,0,0,0,0,0,0,0,0,0,0,0,0,0,0,0,0,0,0,0,0,0,0,0],"id":10,"left_children":[1,3,5,7,9,11,13,15,17,19,-1,21,23,25,27,29,31,33,35,-1,37,39,41,43,45,-1,47,49,-1,51,53,55,57,59,61,63,-1,-1,65,67,69,-1,71,-1,-1,-1,73,75,-1,77,79,-1,-1,-1,-1,-1,-1,-1,-1,-1,-1,-1,-1,-1,-1,-1,-1,-1,-1,-1,-1,-1,-1,-1,-1,-1,-1,-1,-1,-1,-1],"loss_changes":[4.9150747E3,5.910805E3,2.6192512E3,3.8828293E3,2.0017578E1,2.0705693E3,1.7106055E3,4.1246997E3,8.304224E1,9.3847656E-1,0E0,3.4105215E3,1.6965479E2,3.7651367E0,3.5004938E2,4.431288E3,1.9628418E1,5.5910645E0,2.5893188E1,0E0,3.09198E0,1.3053369E2,1.6730593E3,3.7402344E-1,1.25111435E2,0E0,9.828491E-1,2.9231268E2,0E0,4.721085E3,9.9471436E1,6.6672363E0,1.2708374E1,7.788086E-1,2.9657593E0,3.3544312E0,0E0,0E0,5.27063E1,3.3087067E2,7.7470703E0,0E0,8.926323E2,0E0,0E0,0E0,4.0731274E1,2.8695679E0,0E0,3.138955E2,7.0898926E1,0E0,0E0,0E0,0E0,0E0,0E0,0E0,0E0,0E0,0E0,0E0,0E0,0E0,0E0,0E0,0E0,0E0,0E0,0E0,0E0,0E0,0E0,0E0,0E0,0E0,0E0,0E0,0E0,0E0,0E0],"parents":[2147483647,0,0,1,1,2,2,3,3,4,4,5,5,6,6,7,7,8,8,9,9,11,11,12,12,13,13,14,14,15,15,16,16,17,17,18,18,20,20,21,21,22,22,23,23,24,24,26,26,27,27,29,29,30,30,31,31,32,32,33,33,34,34,35,35,38,38,39,39,40,40,42,42,46,46,47,47,49,49,50,50],"right_children":[2,4,6,8,10,12,14,16,18,20,-1,22,24,26,28,30,32,34,36,-1,38,40,42,44,46,-1,48,50,-1,52,54,56,58,60,62,64,-1,-1,66,68,70,-1,72,-1,-1,-1,74,76,-1,78,80,-1,-1,-1,-1,-1,-1,-1,-1,-1,-1,-1,-1,-1,-1,-1,-1,-1,-1,-1,-1,-1,-1,-1,-1,-1,-1,-1,-1,-1,-1],"split_conditions":[2.694E1,1E0,1E0,1E0,2.441E1,5.324E1,9.566E1,1E0,1.705E1,5E0,-2.6175472E-1,4.79E1,1.8675E2,2.2E1,1.4974E2,1E0,1.763E1,2.2E1,5.5E1,3.0715272E-1,1.823E1,4E0,5.5E1,2.2E1,1E0,-3.0664405E-1,5.324E1,2.2E1,-3.7078637E-1,1E0,1.763E1,2.2E1,5.5E1,6.47E0,6.75E0,2.314E1,-3.3702743E-1,3.0609202E-1,5.7E1,4.689E1,4.689E1,-3.165879E-1,1.2E1,-3.0740416E-1,-3.1930602E-1,-3.0737746E-1,5E1,4.79E1,-3.2710284E-1,4.557542E1,1.3602E4,6.920022E-2,-4.1771823E-1,-3.4195033E-1,-5.4321223E-1,-3.2651833E-1,-3.7898198E-1,-4.240925E-1,-3.5151118E-1,-3.0961648E-1,-3.2854116E-1,-3.0740628E-1,-3.8194445E-1,-5.8935237E-1,-4.477226E-1,-7.8373104E-1,2.763487E-1,-3.1470448E-1,2.3289278E-1,-3.1527415E-1,-3.816587E-1,-3.1527394E-1,2.4957447E-1,2.666591E-1,-4.371303E-1,-3.3914432E-1,-4.3474454E-1,7.898913E-2,-7.616829E-1,2.3173784E-1,-4.156936E-2],"split_indices":[0,20,19,30,0,0,0,24,0,10,0,0,0,10,0,29,0,10,16,0,0,9,16,10,24,0,0,10,0,18,0,10,16,0,0,0,0,0,16,0,0,0,10,0,0,0,16,0,0,5,3,0,0,0,0,0,0,0,0,0,0,0,0,0,0,0,0,0,0,0,0,0,0,0,0,0,0,0,0,0,0],"split_type":[0,0,0,0,0,0,0,0,0,0,0,0,0,0,0,0,0,0,0,0,0,0,0,0,0,0,0,0,0,0,0,0,0,0,0,0,0,0,0,0,0,0,0,0,0,0,0,0,0,0,0,0,0,0,0,0,0,0,0,0,0,0,0,0,0,0,0,0,0,0,0,0,0,0,0,0,0,0,0,0,0],"sum_hessian":[9.197855E4,7.118411E4,2.0794436E4,6.4629305E4,6.5548096E3,1.5315238E4,5.4791973E3,6.192727E4,2.7020325E3,6.5499146E3,4.8952303E0,7.3975747E3,7.917664E3,9.268216E2,4.5523755E3,5.9586098E4,2.3411738E3,2.442012E3,2.6002048E2,5.8559814E3,6.9393274E2,3.4984417E3,3.8991328E3,7.7480605E3,1.6960333E2,5.3919324E2,3.876284E2,4.4268516E3,1.2552398E2,5.719273E4,2.3933677E3,1.2477705E3,1.0934032E3,2.053711E3,3.8830106E2,1.9370438E2,6.631609E1,4.604355E2,2.3349727E2,4.6836362E2,3.0300781E3,6.788222E2,3.2203108E3,6.6936216E3,1.054439E3,7.088776E1,9.871558E1,1.9135931E2,1.9626909E2,2.4098901E3,2.0169613E3,5.53416E4,1.8511289E3,2.1439138E3,2.4945389E2,8.785381E2,3.6923245E2,7.170032E2,3.7640005E2,7.797982E2,1.2739127E3,9.408865E1,2.942124E2,1.5632416E2,3.7380215E1,3.360769E0,2.301365E2,3.267319E2,1.416317E2,2.8373093E3,1.9276868E2,2.7447485E2,2.945836E3,9.1565475E1,7.150108E0,1.2640389E2,6.4955414E1,2.3702249E3,3.966528E1,1.9278717E3,8.9089584E1],"tree_param":{"num_deleted":"0","num_feature":"32","num_nodes":"81","size_leaf_vector":"1"}},{"base_weights":[-1.6826527E-2,2.2640774E-2,-1.0939865E0,5.7684775E-2,-1.2241948E0,-1.1424781E0,6.363619E-1,9.486787E-2,-1.0962439E0,-1.2819554E0,-3.0488363E-1,-1.176965E0,-3.0508706E-1,-1.8088511E0,8.1502026E-1,1.2962563E-1,-1.2499492E0,-1.0680549E0,-1.183744E0,-1.1451563E0,-1.3775854E0,-1.1447037E0,-1.6861706E0,-2.0425867E-1,-6.6530406E-1,9.5909613E-1,-3.934395E-1,1.6805786E-1,-1.139789E0,-1.1846445E0,-2.465845E0,-3.1553432E-1,-1.1475812E0,-1.4250324E0,-3.0930498E-1,-3.1395006E-1,-1.3232284E0,-1.4899938E0,-1.2007488E0,-1.1620674E0,-3.1236324E-1,-3.118953E-1,-2.6322732E0,-4.6773154E-1,3.070963E-1,8.360691E-2,-8.734979E-2,-3.244818E-1,-4.0294498E-1,-3.3270136E-1,-4.144698E-1,-9.263226E-1,-3.2582772E-1,-3.0357528E-1,-3.5529512E-1,-4.560747E-1,-3.240941E-1,-3.35238E-1,-4.1083327E-1,-4.962577E-1,-3.5967883E-1,-3.1943685E-1,-5.2011937E-1,-3.3008105E-1,-3.6930102E-1,-9.8519784E-1,-4.61511E-1],"categories":[],"categories_nodes":[],"categories_segments":[],"categories_sizes":[],"default_left":[0,0,0,0,0,0,0,0,0,0,0,0,0,0,0,0,0,0,0,0,0,0,0,0,0,0,0,0,0,0,0,0,0,0,0,0,0,0,0,0,0,0,0,0,0,0,0,0,0,0,0,0,0,0,0,0,0,0,0,0,0,0,0,0,0,0,0],"id":11,"left_children":[1,3,5,7,9,11,13,15,17,19,-1,21,-1,23,25,27,29,31,33,35,37,39,41,-1,-1,43,-1,45,47,49,51,-1,53,55,-1,-1,57,59,61,63,-1,-1,65,-1,-1,-1,-1,-1,-1,-1,-1,-1,-1,-1,-1,-1,-1,-1,-1,-1,-1,-1,-1,-1,-1,-1,-1],"loss_changes":[3.5283018E3,3.4982747E3,2.468645E2,3.341393E3,2.498291E1,1.1156738E1,3.6688744E1,3.5266003E3,4.7321777E0,2.0780518E1,0E0,3.474243E1,0E0,1.1644039E0,2.448394E1,3.58812E3,1.4801392E2,1.1860352E0,2.0019531E1,1.1072815E1,1.8108032E1,2.5683594E0,7.732782E1,0E0,0E0,1.32322235E1,0E0,3.6266938E3,2.4119629E1,2.5366943E1,7.899054E1,0E0,3.121643E-1,5.6907043E0,0E0,0E0,8.378296E-1,2.7065674E1,2.6716064E1,6.2785645E0,0E0,0E0,3.2364227E1,0E0,0E0,0E0,0E0,0E0,0E0,0E0,0E0,0E0,0E0,0E0,0E0,0E0,0E0,0E0,0E0,0E0,0E0,0E0,0E0,0E0,0E0,0E0,0E0],"parents":[2147483647,0,0,1,1,2,2,3,3,4,4,5,5,6,6,7,7,8,8,9,9,11,11,13,13,14,14,15,15,16,16,17,17,18,18,19,19,20,20,21,21,22,22,25,25,27,27,28,28,29,29,30,30,32,32,33,33,36,36,37,37,38,38,39,39,42,42],"right_children":[2,4,6,8,10,12,14,16,18,20,-1,22,-1,24,26,28,30,32,34,36,38,40,42,-1,-1,44,-1,46,48,50,52,-1,54,56,-1,-1,58,60,62,64,-1,-1,66,-1,-1,-1,-1,-1,-1,-1,-1,-1,-1,-1,-1,-1,-1,-1,-1,-1,-1,-1,-1,-1,-1,-1,-1],"split_conditions":[1E0,1E0,1.8675E2,1E0,5.324E1,5.324E1,3.94193E1,1E0,1.705E1,1.705E1,-3.0488363E-1,4.79E1,-3.0508706E-1,2.2E1,5E1,1E0,2.2E1,2.2E1,2.694E1,2.2E1,2.314E1,2.569E1,2.2E1,-2.0425867E-1,-6.6530406E-1,3.8E1,-3.934395E-1,2.694E1,2.2E1,1.705E1,2.569E1,-3.1553432E-1,6.75E0,5.5E1,-3.0930498E-1,-3.1395006E-1,6.2E0,5.5E1,2.2E1,1.763E1,-3.1236324E-1,-3.118953E-1,2.471E3,-4.6773154E-1,3.070963E-1,8.360691E-2,-8.734979E-2,-3.244818E-1,-4.0294498E-1,-3.3270136E-1,-4.144698E-1,-9.263226E-1,-3.2582772E-1,-3.0357528E-1,-3.5529512E-1,-4.560747E-1,-3.240941E-1,-3.35238E-1,-4.1083327E-1,-4.962577E-1,-3.5967883E-1,-3.1943685E-1,-5.2011937E-1,-3.3008105E-1,-3.6930102E-1,-9.8519784E-1,-4.61511E-1],"split_indices":[24,18,0,30,0,0,5,26,0,0,0,0,0,10,16,29,10,10,0,10,0,0,10,0,0,16,0,0,10,0,0,0,0,16,0,0,0,16,10,0,0,0,3,0,0,0,0,0,0,0,0,0,0,0,0,0,0,0,0,0,0,0,0,0,0,0,0],"split_type":[0,0,0,0,0,0,0,0,0,0,0,0,0,0,0,0,0,0,0,0,0,0,0,0,0,0,0,0,0,0,0,0,0,0,0,0,0,0,0,0,0,0,0,0,0,0,0,0,0,0,0,0,0,0,0,0,0,0,0,0,0,0,0,0,0,0,0],"sum_hessian":[8.299268E4,8.006024E4,2.9324402E3,7.7872484E4,2.1877578E3,2.8528315E3,7.9608604E1,7.5442414E4,2.430067E3,1.7080752E3,4.7968268E2,2.2313838E3,6.214478E2,4.799225E0,7.480938E1,7.354256E4,1.8998563E3,1.847943E3,5.8212384E2,7.081041E2,9.9997107E2,2.1014897E3,1.2989398E2,1.9857618E0,2.813463E0,7.057658E1,4.2328043E0,7.138229E4,2.1602708E3,1.8048914E3,9.496494E1,1.5458365E3,3.021064E2,2.2241232E2,3.5971155E2,4.6008383E2,2.4802026E2,6.0681555E2,3.9315555E2,1.7908075E3,3.1068228E2,7.84108E1,5.1483173E1,1.1854565E0,6.939112E1,5.7524438E4,1.3857851E4,1.6846096E3,4.7566107E2,1.308798E3,4.9609344E2,6.460679E1,3.0358152E1,7.04571E1,2.3164932E2,1.7160289E2,5.0809433E1,5.0106827E1,1.9791344E2,3.849629E2,2.2185268E2,3.1563693E2,7.75186E1,9.53241E2,8.375665E2,3.1007568E1,2.0475607E1],"tree_param":{"num_deleted":"0","num_feature":"32","num_nodes":"67","size_leaf_vector":"1"}},{"base_weights":[-1.7815126E-2,4.999548E-1,-1.0066377E-1,6.950606E-1,-4.8842254E-1,-3.1786132E-1,2.6683393E-1,7.5761735E-1,-1.1090405E0,-3.0644515E-1,8.189219E-1,-3.967651E-1,3.3852443E-1,-1.8936897E-2,4.4581702E-1,-3.1624663E-1,8.0888355E-1,-3.1806645E-1,-3.9160654E-1,3.1258598E-1,-3.2692012E-1,-6.691751E-1,-2.042242E-1,-8.621914E-1,1.0526512E0,6.623335E-2,-1.6729971E0,6.5341455E-1,1.619208E-1,8.289545E-1,-3.0715764E-1,-9.0122604E-1,-2.3167908E-2,-1.21111326E-1,-1.6340271E0,9.8602515E-1,-1.2142392E0,-1.835625E0,1.1834568E0,-3.0361864E-1,3.725336E-1,-3.3234704E-1,-5.360527E-1,6.785306E-1,-3.951225E-1,8.459392E-2,8.233726E-1,2.5373712E-1,-3.0576822E-1,-3.0223066E-1,6.488363E-2,-1.9131199E-1,2.9068312E-1,7.566067E-2,-1.3473669E-1,-7.1765685E-1,-3.4225482E-1,-3.8889068E-1,7.660544E-1,-3.2178032E-1,-3.9795616E-1,-5.5300003E-1,-1.6951838E-1,4.70213E-1,1.3955918E-1,-1.8401739E-1,5.3859424E-2,1.4132899E-1,-5.821122E-1,2.3187332E-1,7.390304E-2,-3.951612E-2,1.5531988E-1,-3.6776662E-1,3.1244776E-1],"categories":[],"categories_nodes":[],"categories_segments":[],"categories_sizes":[],"default_left":[0,0,0,0,0,0,0,0,0,0,0,0,0,0,0,0,0,0,0,0,0,0,0,0,0,0,0,0,0,0,0,0,0,0,0,0,0,0,0,0,0,0,0,0,0,0,0,0,0,0,0,0,0,0,0,0,0,0,0,0,0,0,0,0,0,0,0,0,0,0,0,0,0,0,0],"id":12,"left_children":[1,3,5,7,9,11,13,15,17,-1,19,21,23,25,27,-1,29,-1,-1,-1,-1,31,33,35,37,39,41,43,45,47,-1,49,51,53,55,57,59,61,63,65,67,-1,-1,69,-1,71,73,-1,-1,-1,-1,-1,-1,-1,-1,-1,-1,-1,-1,-1,-1,-1,-1,-1,-1,-1,-1,-1,-1,-1,-1,-1,-1,-1,-1],"loss_changes":[3.361449E3,2.0847542E3,5.392094E3,1.0196821E3,1.2430881E3,2.1991484E3,1.283538E3,8.113135E2,1.5194397E0,0E0,2.2115744E2,1.9878936E3,3.908213E3,1.3617032E3,9.09291E2,0E0,3.1300928E2,0E0,0E0,0E0,0E0,2.3528672E3,2.6389604E3,1.1073093E3,1.0818704E3,1.0415255E3,2.8476318E1,4.41979E2,3.3335168E2,2.620703E2,0E0,1.3708037E3,2.5302534E3,2.5703127E3,4.534253E2,9.783764E2,2.1293945E1,1.7492676E-1,7.53355E2,6.234615E2,1.1473296E3,0E0,0E0,3.588003E2,0E0,5.470136E2,3.0620697E2,0E0,0E0,0E0,0E0,0E0,0E0,0E0,0E0,0E0,0E0,0E0,0E0,0E0,0E0,0E0,0E0,0E0,0E0,0E0,0E0,0E0,0E0,0E0,0E0,0E0,0E0,0E0,0E0],"parents":[2147483647,0,0,1,1,2,2,3,3,4,4,5,5,6,6,7,7,8,8,10,10,11,11,12,12,13,13,14,14,16,16,21,21,22,22,23,23,24,24,25,25,26,26,27,27,28,28,29,29,31,31,32,32,33,33,34,34,35,35,36,36,37,37,38,38,39,39,40,40,43,43,45,45,46,46],"right_children":[2,4,6,8,10,12,14,16,18,-1,20,22,24,26,28,-1,30,-1,-1,-1,-1,32,34,36,38,40,42,44,46,48,-1,50,52,54,56,58,60,62,64,66,68,-1,-1,70,-1,72,74,-1,-1,-1,-1,-1,-1,-1,-1,-1,-1,-1,-1,-1,-1,-1,-1,-1,-1,-1,-1,-1,-1,-1,-1,-1,-1,-1,-1],"split_conditions":[4E0,2.441E1,2.2E1,1E0,1E0,1E0,1.535E1,5.92E0,1.763E1,-3.0644515E-1,5.5E1,1.763E1,8.88E0,1E0,2.314E1,-3.1624663E-1,1E0,-3.1806645E-1,-3.9160654E-1,3.1258598E-1,-3.2692012E-1,6.8E1,1.6163E4,-1.2136168E2,3.485247E1,1E0,6.33E0,1E0,1E0,1E0,-3.0715764E-1,-7.30882E1,6.951E3,2.248E1,2.314E1,-1.206405E2,6.47E0,2.441E1,1.8E1,1E0,1.108E1,-3.3234704E-1,-5.360527E-1,5.6E1,-3.951225E-1,1.0319E2,5.5E1,2.5373712E-1,-3.0576822E-1,-3.0223066E-1,6.488363E-2,-1.9131199E-1,2.9068312E-1,7.566067E-2,-1.3473669E-1,-7.1765685E-1,-3.4225482E-1,-3.8889068E-1,7.660544E-1,-3.2178032E-1,-3.9795616E-1,-5.5300003E-1,-1.6951838E-1,4.70213E-1,1.3955918E-1,-1.8401739E-1,5.3859424E-2,1.4132899E-1,-5.821122E-1,2.3187332E-1,7.390304E-2,-3.951612E-2,1.5531988E-1,-3.6776662E-1,3.1244776E-1],"split_indices":[10,0,10,26,19,31,0,0,0,0,16,0,0,28,0,0,30,0,0,0,0,16,3,6,5,17,0,18,27,29,0,2,3,0,0,2,0,0,12,31,0,0,0,16,0,0,16,0,0,0,0,0,0,0,0,0,0,0,0,0,0,0,0,0,0,0,0,0,0,0,0,0,0,0,0],"split_type":[0,0,0,0,0,0,0,0,0,0,0,0,0,0,0,0,0,0,0,0,0,0,0,0,0,0,0,0,0,0,0,0,0,0,0,0,0,0,0,0,0,0,0,0,0,0,0,0,0,0,0,0,0,0,0,0,0,0,0,0,0,0,0,0,0,0,0,0,0,0,0,0,0,0,0],"sum_hessian":[7.835959E4,1.080814E4,6.755145E4,9.026587E3,1.7815527E3,4.245811E4,2.5093346E4,8.724643E3,3.0194476E2,1.2656932E3,5.158596E2,3.790229E4,4.55582E3,9.664134E3,1.5429211E4,2.3954199E2,8.485101E3,2.4693753E2,5.5007233E1,4.622935E2,5.3566093E1,1.5694699E4,2.220759E4,1.6989828E3,2.856837E3,9.191793E3,4.723404E2,8.911456E3,6.5177554E3,8.393726E3,9.137477E1,1.1546654E4,4.1480454E3,2.0988629E4,1.2189613E3,2.715534E2,1.4274293E3,1.2321145E2,2.7336255E3,4.1639307E3,5.0278623E3,8.099234E1,3.9134805E2,8.799947E3,1.11509285E2,5.836561E3,6.8119403E2,8.318491E3,7.523426E1,1.0544579E4,1.00207477E3,2.5616516E3,1.5863937E3,9.816534E3,1.1172095E4,4.78899E2,7.4006226E2,1.1063599E2,1.6091742E2,6.358646E2,7.915647E2,1.2202037E2,1.1910759E0,1.780657E3,9.5296844E2,2.5370356E3,1.6268951E3,4.8231245E3,2.0473793E2,7.2220234E3,1.5779233E3,3.8930337E3,1.9435275E3,6.5085724E1,6.161083E2],"tree_param":{"num_deleted":"0","num_feature":"32","num_nodes":"75","size_leaf_vector":"1"}},{"base_weights":[-1.3638872E-2,1.6872475E-2,-1.0563825E0,4.3214317E-2,-1.1510175E0,-1.1006371E0,5.1853997E-1,6.929003E-2,-1.0690576E0,-1.187681E0,-3.0280277E-1,-1.1241554E0,-3.0307925E-1,-4.7415754E-1,7.2476E-1,9.462638E-2,-1.1136103E0,-3.129208E-1,-1.1365236E0,-1.169517E0,-1.5999709E0,-1.1044852E0,-1.382224E0,9.0041566E-1,-3.6809695E-1,1.1929822E-1,-1.1842086E0,-1.0595671E0,-1.263864E0,-1.2867486E0,-3.0675238E-1,-1.2278516E0,-1.0989126E0,-2.9855E-1,-2.346097E0,-3.2000807E-1,-1.1304625E0,-3.0431905E-1,-1.7101482E0,-4.3294203E-1,2.949754E-1,1.6621423E-1,1.6556144E-2,-3.3993956E-1,-5.4548347E-1,-3.084209E-1,-3.3929726E-1,-3.535782E-1,-4.5085526E-1,-4.0321198E-1,-3.1270915E-1,-3.2981372E-1,-3.8951007E-1,-3.1804442E-1,-3.5911164E-1,-1.6699967E-1,-7.288709E-1,-3.49394E-1,-3.1027037E-1,-5.563168E-1,-3.9433852E-1],"categories":[],"categories_nodes":[],"categories_segments":[],"categories_sizes":[],"default_left":[0,0,0,0,0,0,0,0,0,0,0,0,0,0,0,0,0,0,0,0,0,0,0,0,0,0,0,0,0,0,0,0,0,0,0,0,0,0,0,0,0,0,0,0,0,0,0,0,0,0,0,0,0,0,0,0,0,0,0,0,0],"id":13,"left_children":[1,3,5,7,9,11,13,15,17,19,-1,21,-1,-1,23,25,27,-1,29,31,33,35,37,39,-1,41,43,45,47,49,-1,51,53,-1,55,-1,57,-1,59,-1,-1,-1,-1,-1,-1,-1,-1,-1,-1,-1,-1,-1,-1,-1,-1,-1,-1,-1,-1,-1,-1],"loss_changes":[2.2569287E3,2.1203845E3,1.4112866E2,1.954967E3,6.69812E0,3.0339355E0,2.529904E1,1.9739386E3,1.5217285E0,7.1309814E0,0E0,6.3308105E0,0E0,0E0,1.8758385E1,2.0345417E3,9.875732E0,0E0,5.847351E0,3.407959E0,1.9328957E1,2.109375E-1,1.1008545E1,1.0701866E1,0E0,1.7631621E3,3.746753E1,1.1363525E0,5.5683594E0,1.0713501E0,0E0,4.225342E0,7.5494385E-1,0E0,1.747818E0,0E0,1.5539551E0,0E0,6.6708374E-1,0E0,0E0,0E0,0E0,0E0,0E0,0E0,0E0,0E0,0E0,0E0,0E0,0E0,0E0,0E0,0E0,0E0,0E0,0E0,0E0,0E0,0E0],"parents":[2147483647,0,0,1,1,2,2,3,3,4,4,5,5,6,6,7,7,8,8,9,9,11,11,14,14,15,15,16,16,18,18,19,19,20,20,21,21,22,22,23,23,25,25,26,26,27,27,28,28,29,29,31,31,32,32,34,34,36,36,38,38],"right_children":[2,4,6,8,10,12,14,16,18,20,-1,22,-1,-1,24,26,28,-1,30,32,34,36,38,40,-1,42,44,46,48,50,-1,52,54,-1,56,-1,58,-1,60,-1,-1,-1,-1,-1,-1,-1,-1,-1,-1,-1,-1,-1,-1,-1,-1,-1,-1,-1,-1,-1,-1],"split_conditions":[1E0,1E0,1.8675E2,1E0,5.324E1,5.324E1,3.94193E1,1E0,1.646E1,4.891E1,-3.0280277E-1,4.79E1,-3.0307925E-1,-4.7415754E-1,5E1,1E0,2.2E1,-3.129208E-1,2.694E1,5.5E1,2.2E1,1.763E1,2.2E1,3.8E1,-3.6809695E-1,4E0,2.2E1,1.705E1,1.535E1,5.5E1,-3.0675238E-1,1.763E1,2.2E1,-2.9855E-1,5.5E1,-3.2000807E-1,2.506E1,-3.0431905E-1,2.471E3,-4.3294203E-1,2.949754E-1,1.6621423E-1,1.6556144E-2,-3.3993956E-1,-5.4548347E-1,-3.084209E-1,-3.3929726E-1,-3.535782E-1,-4.5085526E-1,-4.0321198E-1,-3.1270915E-1,-3.2981372E-1,-3.8951007E-1,-3.1804442E-1,-3.5911164E-1,-1.6699967E-1,-7.288709E-1,-3.49394E-1,-3.1027037E-1,-5.563168E-1,-3.9433852E-1],"split_indices":[24,18,0,30,0,0,5,29,0,0,0,0,0,0,16,26,10,0,0,16,10,0,10,16,0,10,10,0,0,16,0,0,10,0,16,0,0,0,3,0,0,0,0,0,0,0,0,0,0,0,0,0,0,0,0,0,0,0,0,0,0],"split_type":[0,0,0,0,0,0,0,0,0,0,0,0,0,0,0,0,0,0,0,0,0,0,0,0,0,0,0,0,0,0,0,0,0,0,0,0,0,0,0,0,0,0,0,0,0,0,0,0,0,0,0,0,0,0,0,0,0,0,0,0,0],"sum_hessian":[7.0936445E4,6.8920766E4,2.0156816E3,6.740148E4,1.5192821E3,1.9608829E3,5.479869E1,6.585845E4,1.5430247E3,1.2010775E3,3.1820465E2,1.5468878E3,4.1399515E2,4.30588E0,5.049281E1,6.4478324E4,1.3801311E3,1.1258156E3,4.17209E2,1.1540703E3,4.700716E1,1.442239E3,1.046488E2,4.6817905E1,3.6749058E0,6.3258812E4,1.2195095E3,1.02096344E3,3.591677E2,1.7558095E2,2.4162808E2,6.229711E2,5.310992E2,2.7251263E1,1.9755898E1,6.046553E2,8.3758374E2,5.1252796E1,5.3396008E1,1.037709E0,4.5780193E1,8.12873E3,5.5130086E4,1.1311758E3,8.8333664E1,7.191959E2,3.0176752E2,2.690889E2,9.0078804E1,1.3859125E2,3.6989704E1,2.2664104E2,3.963301E2,3.8916425E2,1.4193495E2,1.222282E0,1.8533615E1,6.09841E2,2.2774275E2,3.6429665E1,1.6966341E1],"tree_param":{"num_deleted":"0","num_feature":"32","num_nodes":"61","size_leaf_vector":"1"}},{"base_weights":[-1.3766245E-2,-1.3139111E-1,2.2787659E-1,3.5524222E-1,-2.316131E-1,-7.3112654E-3,3.7898302E-1,5.832432E-1,-5.2017766E-1,-4.3636853E-1,-1.8354382E-2,8.1465036E-2,-2.5252163E0,5.6617975E-1,1.4246893E-1,3.0422804E-1,3.025539E-1,-8.561895E-1,7.086996E-1,-1.1819505E-1,-6.861934E-1,-1.1706808E0,3.5292055E-2,1.4696029E-1,-1.6815293E0,-1.2040569E0,-2.8775115E0,6.826453E-1,1.3074456E-1,8.1515186E-2,8.05856E-1,6.948082E-1,-3.0946997E-1,-5.1414005E-2,-3.0556178E-1,3.0717954E-1,-3.288806E-1,2.6642042E-3,-1.4397448E0,-1.0879889E0,-3.8130677E-1,-1.3938985E0,4.256598E-1,-5.407806E-1,1.2941791E-1,2.0705071E-1,-1.3873069E0,-1.9405757E0,2.802759E-1,-3.235791E-1,-5.1013064E-1,-3.0848088E0,-2.59837E0,7.031571E-1,-3.7215137E-1,-2.9637659E0,7.9451346E-1,-7.0828594E-2,4.2627108E-1,-1.1847744E0,3.086428E-1,2.7043292E-1,-5.169188E-1,-4.6044022E-1,2.9617164E-1,-5.3637195E-1,2.7299523E-1,6.4292215E-2,-2.2528689E-1,-3.7529913E-1,-4.9026087E-1,-3.7525064E-1,-1.9639289E-2,-2.7288845E-1,-2.665693E-2,-4.801557E-1,-7.147711E-2,3.02475E-1,-2.945456E-1,-1.0410866E-2,-4.24361E-1,7.5696655E-2,-1.608261E-1,-2.354605E-2,1.3326187E-1,-3.221946E-1,-4.389606E-1,-5.3087914E-1,-1.7896812E0,-8.49886E-1,-1.0509117E0,-8.4655905E-1,-6.6021234E-1,2.1544284E-1,-5.874579E-1,-1.562368E0,1.0049018E-2,-1.6807067E0,2.4662435E-1,-1.4081609E-1,1.2146028E-1,-2.3061337E-1,1.8743104E-1,-4.8225924E-1,-3.0994666E-1],"categories":[],"categories_nodes":[],"categories_segments":[],"categories_sizes":[],"default_left":[0,0,0,0,0,0,0,0,0,0,0,0,0,0,0,0,0,0,0,0,0,0,0,0,0,0,0,0,0,0,0,0,0,0,0,0,0,0,0,0,0,0,0,0,0,0,0,0,0,0,0,0,0,0,0,0,0,0,0,0,0,0,0,0,0,0,0,0,0,0,0,0,0,0,0,0,0,0,0,0,0,0,0,0,0,0,0,0,0,0,0,0,0,0,0,0,0,0,0,0,0,0,0,0,0],"id":14,"left_children":[1,3,5,7,9,11,13,15,17,19,21,23,25,27,29,31,-1,33,35,37,39,41,43,45,47,49,51,53,55,57,59,61,63,65,-1,-1,-1,67,69,71,73,75,77,79,81,83,85,87,-1,-1,-1,89,91,93,-1,95,97,99,101,103,-1,-1,-1,-1,-1,-1,-1,-1,-1,-1,-1,-1,-1,-1,-1,-1,-1,-1,-1,-1,-1,-1,-1,-1,-1,-1,-1,-1,-1,-1,-1,-1,-1,-1,-1,-1,-1,-1,-1,-1,-1,-1,-1,-1,-1],"loss_changes":[1.9376226E3,2.23631E3,7.931892E2,1.5633005E3,1.6602329E3,1.95197E3,6.015502E2,7.3692725E2,6.689592E2,1.541773E3,1.1514092E3,9.7423364E2,1.3495801E2,3.8455908E2,2.4274481E2,8.998368E2,0E0,1.6607764E2,1.9918246E2,1.3628828E3,1.3306396E3,2.9583008E2,9.651104E2,7.501918E2,2.0660089E2,2.17202E0,5.529297E0,2.3692358E2,3.2925647E3,2.8893076E2,2.254342E2,1.1475697E3,2.321861E3,3.5972705E2,0E0,0E0,0E0,1.2472609E3,2.4197388E1,7.8041064E2,9.546737E2,1.7324365E2,8.49639E1,1.1053162E3,1.2514719E3,5.301372E2,5.7216797E0,1.7891248E2,0E0,0E0,0E0,3.6621094E0,3.218933E0,2.375647E2,0E0,1.9044917E3,2.3733154E2,7.236249E2,4.0037885E2,1.6305008E0,0E0,0E0,0E0,0E0,0E0,0E0,0E0,0E0,0E0,0E0,0E0,0E0,0E0,0E0,0E0,0E0,0E0,0E0,0E0,0E0,0E0,0E0,0E0,0E0,0E0,0E0,0E0,0E0,0E0,0E0,0E0,0E0,0E0,0E0,0E0,0E0,0E0,0E0,0E0,0E0,0E0,0E0,0E0,0E0,0E0],"parents":[2147483647,0,0,1,1,2,2,3,3,4,4,5,5,6,6,7,7,8,8,9,9,10,10,11,11,12,12,13,13,14,14,15,15,17,17,18,18,19,19,20,20,21,21,22,22,23,23,24,24,25,25,26,26,27,27,28,28,29,29,30,30,31,31,32,32,33,33,37,37,38,38,39,39,40,40,41,41,42,42,43,43,44,44,45,45,46,46,47,47,51,51,52,52,53,53,55,55,56,56,57,57,58,58,59,59],"right_children":[2,4,6,8,10,12,14,16,18,20,22,24,26,28,30,32,-1,34,36,38,40,42,44,46,48,50,52,54,56,58,60,62,64,66,-1,-1,-1,68,70,72,74,76,78,80,82,84,86,88,-1,-1,-1,90,92,94,-1,96,98,100,102,104,-1,-1,-1,-1,-1,-1,-1,-1,-1,-1,-1,-1,-1,-1,-1,-1,-1,-1,-1,-1,-1,-1,-1,-1,-1,-1,-1,-1,-1,-1,-1,-1,-1,-1,-1,-1,-1,-1,-1,-1,-1,-1,-1,-1,-1],"split_conditions":[2.2E1,4E0,1.48E1,2.187E1,-8.422976E1,1E0,2.314E1,1E0,1E0,5E0,2.8E1,1.21E1,6.75E0,5.5E1,1E0,5.5E1,3.025539E-1,2.441E1,5.5E1,2E1,1.884E1,1E0,7E0,1E0,1E0,6.47E0,1.108E1,1E0,2.092E3,1.0319E2,5.5E1,1.264E1,1E0,1E0,-3.0556178E-1,3.0717954E-1,-3.288806E-1,5E0,1.705E1,-8.60383E1,1.5E1,2.9E1,1.264E1,1.97E3,2.569E1,5.5E1,6.33E0,1E0,2.802759E-1,-3.235791E-1,-5.1013064E-1,1E0,1E0,1E0,-3.7215137E-1,8.5E1,3.1628826E1,1E0,1E0,2.694E1,3.086428E-1,2.7043292E-1,-5.169188E-1,-4.6044022E-1,2.9617164E-1,-5.3637195E-1,2.7299523E-1,6.4292215E-2,-2.2528689E-1,-3.7529913E-1,-4.9026087E-1,-3.7525064E-1,-1.9639289E-2,-2.7288845E-1,-2.665693E-2,-4.801557E-1,-7.147711E-2,3.02475E-1,-2.945456E-1,-1.0410866E-2,-4.24361E-1,7.5696655E-2,-1.608261E-1,-2.354605E-2,1.3326187E-1,-3.221946E-1,-4.389606E-1,-5.3087914E-1,-1.7896812E0,-8.49886E-1,-1.0509117E0,-8.4655905E-1,-6.6021234E-1,2.1544284E-1,-5.874579E-1,-1.562368E0,1.0049018E-2,-1.6807067E0,2.4662435E-1,-1.4081609E-1,1.2146028E-1,-2.3061337E-1,1.8743104E-1,-4.8225924E-1,-3.0994666E-1],"split_indices":[10,10,0,0,6,23,0,20,19,8,16,0,0,16,27,16,0,0,16,10,0,20,9,28,31,0,0,19,3,0,16,0,21,20,0,0,0,13,0,6,10,9,0,3,0,16,0,27,0,0,0,17,17,27,0,16,5,28,19,0,0,0,0,0,0,0,0,0,0,0,0,0,0,0,0,0,0,0,0,0,0,0,0,0,0,0,0,0,0,0,0,0,0,0,0,0,0,0,0,0,0,0,0,0,0],"split_type":[0,0,0,0,0,0,0,0,0,0,0,0,0,0,0,0,0,0,0,0,0,0,0,0,0,0,0,0,0,0,0,0,0,0,0,0,0,0,0,0,0,0,0,0,0,0,0,0,0,0,0,0,0,0,0,0,0,0,0,0,0,0,0,0,0,0,0,0,0,0,0,0,0,0,0,0,0,0,0,0,0,0,0,0,0,0,0,0,0,0,0,0,0,0,0,0,0,0,0,0,0,0,0,0,0],"sum_hessian":[6.816839E4,4.5850246E4,2.231814E4,7.8297803E3,3.802047E4,8.730542E3,1.35876E4,6.2121694E3,1.6176106E3,1.9396408E4,1.8624059E4,8.434139E3,2.9640323E2,7.583778E3,6.0038213E3,3.7521426E3,2.460027E3,1.2705166E3,3.47094E2,8.531844E3,1.0864564E4,8.275455E2,1.7796514E4,8.1329175E3,3.012213E2,6.3328747E1,2.330745E2,5.982954E3,1.6008237E3,5.4996245E3,5.0419702E2,2.2927922E3,1.4593501E3,2.1350047E2,1.0570161E3,2.9585632E2,5.1237694E1,7.8178765E3,7.1396765E2,4.6862334E3,6.1783315E3,7.2613605E2,1.014094E2,2.4987603E3,1.5297753E4,7.827225E3,3.0569254E2,2.7431357E2,2.6907728E1,5.3084545E1,1.0244202E1,1.27981346E2,1.0509315E2,5.9204424E3,6.2511623E1,2.8211768E2,1.318706E3,3.8147317E3,1.6848928E3,5.034847E1,4.5384854E2,2.112852E3,1.7994034E2,7.502317E2,7.091184E2,7.577492E1,1.3772554E2,6.104292E3,1.7135845E3,3.660752E2,3.4789246E2,4.042245E3,6.439881E2,2.2006582E3,3.977673E3,6.1567316E2,1.1046292E2,7.192253E1,2.948687E1,1.5829554E3,9.158049E2,1.2913526E4,2.384226E3,3.5516606E3,4.2755645E3,6.2562164E1,2.4313037E2,2.6451685E2,9.796734E0,8.4730705E1,4.325064E1,6.337766E1,4.1715492E1,5.888018E3,3.2424274E1,1.6090582E2,1.2121187E2,4.7909074E0,1.3139152E3,2.075665E3,1.7390665E3,2.396009E2,1.4452919E3,1.0755812E1,3.959266E1],"tree_param":{"num_deleted":"0","num_feature":"32","num_nodes":"105","size_leaf_vector":"1"}},{"base_weights":[-1.008886E-2,1.3032041E-2,-1.0118482E0,3.2692466E-2,-1.1100819E0,-1.0724003E0,6.05094E-1,5.171692E-2,-1.0535035E0,-1.1347734E0,-3.0095035E-1,-1.088263E0,-3.0134845E-1,7.7542174E-1,-3.6793298E-1,7.016658E-2,-1.0935912E0,-3.092944E-1,-1.1072155E0,-1.0720869E0,-3.520239E-1,-3.2306215E-1,-1.211849E0,-3.3698624E-1,8.836904E-1,8.78328E-2,-1.146847E0,-3.1349424E-1,-1.2087384E0,-3.6128825E-1,-3.0303985E-1,-3.0515608E-1,-3.4216788E-1,-2.9841638E-1,-4.0564242E-1,2.9502076E-1,-2.8407422E-1,3.1224804E-2,-3.1434894E-1,-3.3052748E-1,-4.8561427E-1,-3.3745903E-1,-4.35887E-1],"categories":[],"categories_nodes":[],"categories_segments":[],"categories_sizes":[],"default_left":[0,0,0,0,0,0,0,0,0,0,0,0,0,0,0,0,0,0,0,0,0,0,0,0,0,0,0,0,0,0,0,0,0,0,0,0,0,0,0,0,0,0,0],"id":15,"left_children":[1,3,5,7,9,11,13,15,17,19,-1,21,-1,23,-1,25,27,-1,29,31,-1,-1,33,-1,35,37,39,-1,41,-1,-1,-1,-1,-1,-1,-1,-1,-1,-1,-1,-1,-1,-1],"loss_changes":[1.4492196E3,1.3504789E3,1.3885315E2,1.2421362E3,1.6394043E0,3.7268066E-1,1.704565E1,1.2483417E3,1.1022949E-1,7.939453E-1,0E0,2.3095703E-1,0E0,1.0821959E1,0E0,1.250077E3,3.97937E0,0E0,1.5369873E0,9.777832E-2,0E0,0E0,1.2168503E0,0E0,9.29031E0,1.0576816E3,1.591687E1,0E0,3.9298096E0,0E0,0E0,0E0,0E0,0E0,0E0,0E0,0E0,0E0,0E0,0E0,0E0,0E0,0E0],"parents":[2147483647,0,0,1,1,2,2,3,3,4,4,5,5,6,6,7,7,8,8,9,9,11,11,13,13,15,15,16,16,18,18,19,19,22,22,24,24,25,25,26,26,28,28],"right_children":[2,4,6,8,10,12,14,16,18,20,-1,22,-1,24,-1,26,28,-1,30,32,-1,-1,34,-1,36,38,40,-1,42,-1,-1,-1,-1,-1,-1,-1,-1,-1,-1,-1,-1,-1,-1],"split_conditions":[1E0,1E0,1.8675E2,1E0,5.324E1,5.324E1,4E0,1E0,1.535E1,1.763E1,-3.0095035E-1,4.746E1,-3.0134845E-1,2.6E1,-3.6793298E-1,1E0,2.2E1,-3.092944E-1,2.694E1,2.2E1,-3.520239E-1,-3.2306215E-1,2.2E1,-3.3698624E-1,3.3E1,1E0,2.2E1,-3.1349424E-1,1.646E1,-3.6128825E-1,-3.0303985E-1,-3.0515608E-1,-3.4216788E-1,-2.9841638E-1,-4.0564242E-1,2.9502076E-1,-2.8407422E-1,3.1224804E-2,-3.1434894E-1,-3.3052748E-1,-4.8561427E-1,-3.3745903E-1,-4.35887E-1],"split_indices":[24,18,0,30,0,0,13,29,0,0,0,0,0,11,0,26,10,0,0,10,0,0,10,0,11,22,10,0,0,0,0,0,0,0,0,0,0,0,0,0,0,0,0],"split_type":[0,0,0,0,0,0,0,0,0,0,0,0,0,0,0,0,0,0,0,0,0,0,0,0,0,0,0,0,0,0,0,0,0,0,0,0,0,0,0,0,0,0,0],"sum_hessian":[6.2568418E4,6.1157863E4,1.4105544E3,6.010665E4,1.0512129E3,1.3599626E3,5.059176E1,5.9072953E4,1.0336958E3,8.461772E2,2.0503566E2,1.0902538E3,2.6970883E2,4.681475E1,3.7770085E0,5.8137363E4,9.3559064E2,7.4253424E2,2.9116156E2,3.3364175E2,5.1253546E2,1.00715186E3,8.310197E1,2.0197308E0,4.4795017E1,5.730643E4,8.309345E2,6.649508E2,2.706398E2,1.3988133E2,1.5128024E2,1.9397319E2,1.3966856E2,3.5794247E1,4.7307724E1,4.291999E1,1.8750298E0,5.649891E4,8.0751874E2,7.6150446E2,6.943001E1,2.0562524E2,6.5014565E1],"tree_param":{"num_deleted":"0","num_feature":"32","num_nodes":"43","size_leaf_vector":"1"}},{"base_weights":[-1.1396358E-2,-1.0374223E-1,1.8252957E-1,3.4580722E-1,-1.7922029E-1,-8.343021E-3,3.1522763E-1,5.536655E-1,-4.7511074E-1,-9.8160046E-1,-1.3949238E-1,5.9396558E-2,-1.7077928E0,4.7833383E-1,6.679643E-2,2.8830552E-1,3.0166382E-1,-7.892446E-1,6.7601764E-1,3.6632225E-1,-1.2050558E0,-9.261234E-2,-7.813822E-1,1.1666992E-1,-1.2664201E0,-3.150551E-1,-5.4189384E-1,5.9864503E-1,3.1822156E-2,1.4858751E-1,-1.3491813E0,6.1174047E-1,-2.8312007E-1,-2.3072887E-2,-3.040312E-1,3.0443767E-1,-3.2074782E-1,-1.3269639E0,1.3633665E0,-1.3736824E0,-1.9655918E-1,-1.8148798E-1,3.0673188E-1,-1.3149756E-1,-1.4322522E0,1.6668786E-1,-1.2319338E0,-3.1441924E-1,-3.905606E-1,6.2152386E-1,-1.2962812E0,-1.8204035E0,7.736857E-1,2.947639E-1,-2.9438496E-1,-7.9452914E-1,-1.2521993E0,2.3133032E-1,-4.0397185E-1,-4.3537748E-1,2.8984877E-1,-4.7658792E-1,2.6295698E-1,2.1905307E-1,-4.9336952E-1,-3.7099522E-1,4.3208343E-1,-4.5294756E-1,1.9543754E-2,3.0726826E-1,-4.5668098E-1,-1.3758475E-1,1.0268066E-2,1.5341912E-1,-1.9362845E-1,-4.2626658E-1,1.5562479E-1,-4.5173633E-1,-4.6430737E-2,5.9746493E-2,-5.559651E-1,-3.4594625E-1,-4.0660012E-1,-2.0209627E0,1.8825121E-1,-3.489948E-1,-4.95455E-1,-9.9768406E-1,-1.7860189E-1,-4.1528636E-1,2.5481915E-1,-4.304022E-1,9.5719025E-2,-1.8614705E-1,1.0110119E-1,-3.9942625E-1,-2.9884925E-1],"categories":[],"categories_nodes":[],"categories_segments":[],"categories_sizes":[],"default_left":[0,0,0,0,0,0,0,0,0,0,0,0,0,0,0,0,0,0,0,0,0,0,0,0,0,0,0,0,0,0,0,0,0,0,0,0,0,0,0,0,0,0,0,0,0,0,0,0,0,0,0,0,0,0,0,0,0,0,0,0,0,0,0,0,0,0,0,0,0,0,0,0,0,0,0,0,0,0,0,0,0,0,0,0,0,0,0,0,0,0,0,0,0,0,0,0,0],"id":16,"left_children":[1,3,5,7,9,11,13,15,17,19,21,23,25,27,29,31,-1,33,35,37,39,41,43,45,47,-1,-1,49,51,53,55,57,59,61,-1,-1,-1,63,65,67,69,71,73,75,77,79,81,-1,-1,83,85,87,89,91,93,-1,95,-1,-1,-1,-1,-1,-1,-1,-1,-1,-1,-1,-1,-1,-1,-1,-1,-1,-1,-1,-1,-1,-1,-1,-1,-1,-1,-1,-1,-1,-1,-1,-1,-1,-1,-1,-1,-1,-1,-1,-1],"loss_changes":[1.0854233E3,1.3932207E3,4.952171E2,1.0075035E3,1.1205435E3,9.232769E2,4.6731274E2,5.645775E2,4.3199985E2,4.999536E2,1.0079769E3,5.858128E2,1.8020386E1,3.739934E2,5.297353E2,5.4895294E2,0E0,1.6107019E2,1.5264044E2,4.0125253E2,2.416914E2,1.1081213E3,9.642002E2,4.9898654E2,1.1083374E0,0E0,0E0,2.3857446E2,2.0334573E3,2.800418E2,2.815747E1,5.928606E2,1.5685664E3,3.018344E2,0E0,0E0,0E0,5.8820114E1,3.1658295E1,2.388479E2,3.3331427E2,1.5266611E3,1.1079354E3,9.5815643E2,1.0676514E2,4.6800964E2,1.0089417E0,0E0,0E0,2.427024E2,1.1844635E0,7.784203E2,1.7380792E2,1.3709058E2,2.2118439E2,0E0,3.4267578E0,0E0,0E0,0E0,0E0,0E0,0E0,0E0,0E0,0E0,0E0,0E0,0E0,0E0,0E0,0E0,0E0,0E0,0E0,0E0,0E0,0E0,0E0,0E0,0E0,0E0,0E0,0E0,0E0,0E0,0E0,0E0,0E0,0E0,0E0,0E0,0E0,0E0,0E0,0E0,0E0],"parents":[2147483647,0,0,1,1,2,2,3,3,4,4,5,5,6,6,7,7,8,8,9,9,10,10,11,11,12,12,13,13,14,14,15,15,17,17,18,18,19,19,20,20,21,21,22,22,23,23,24,24,27,27,28,28,29,29,30,30,31,31,32,32,33,33,37,37,38,38,39,39,40,40,41,41,42,42,43,43,44,44,45,45,46,46,49,49,50,50,51,51,52,52,53,53,54,54,56,56],"right_children":[2,4,6,8,10,12,14,16,18,20,22,24,26,28,30,32,-1,34,36,38,40,42,44,46,48,-1,-1,50,52,54,56,58,60,62,-1,-1,-1,64,66,68,70,72,74,76,78,80,82,-1,-1,84,86,88,90,92,94,-1,96,-1,-1,-1,-1,-1,-1,-1,-1,-1,-1,-1,-1,-1,-1,-1,-1,-1,-1,-1,-1,-1,-1,-1,-1,-1,-1,-1,-1,-1,-1,-1,-1,-1,-1,-1,-1,-1,-1,-1,-1],"split_conditions":[2.2E1,4E0,1.48E1,2.124E1,2.8E1,1E0,2.441E1,1E0,1E0,1.329253E9,1.7047E4,1E0,6.47E0,5.5E1,1E0,5.5E1,3.0166382E-1,2.441E1,5.5E1,1.328989E9,2.1E1,5.895E3,9.45E0,1E0,6.33E0,-3.150551E-1,-5.4189384E-1,1E0,2.691E3,2.471E3,2.506E1,1.371E1,1E0,1E0,-3.040312E-1,3.0443767E-1,-3.2074782E-1,5E0,4.75196E1,1E0,-9.96791E1,1.884E1,2.124E1,-8.190767E1,1E0,1.264E1,5.5E1,-3.1441924E-1,-3.905606E-1,2.2E1,2.314E1,1E0,3.400624E1,2.8E1,4.8E1,-7.9452914E-1,5.324E1,2.3133032E-1,-4.0397185E-1,-4.3537748E-1,2.8984877E-1,-4.7658792E-1,2.6295698E-1,2.1905307E-1,-4.9336952E-1,-3.7099522E-1,4.3208343E-1,-4.5294756E-1,1.9543754E-2,3.0726826E-1,-4.5668098E-1,-1.3758475E-1,1.0268066E-2,1.5341912E-1,-1.9362845E-1,-4.2626658E-1,1.5562479E-1,-4.5173633E-1,-4.6430737E-2,5.9746493E-2,-5.559651E-1,-3.4594625E-1,-4.0660012E-1,-2.0209627E0,1.8825121E-1,-3.489948E-1,-4.95455E-1,-9.9768406E-1,-1.7860189E-1,-4.1528636E-1,2.5481915E-1,-4.304022E-1,9.5719025E-2,-1.8614705E-1,1.0110119E-1,-3.9942625E-1,-2.9884925E-1],"split_indices":[10,10,0,0,16,23,0,20,19,4,3,28,0,16,25,16,0,0,16,4,10,3,0,19,0,0,0,19,3,3,0,0,21,20,0,0,0,10,1,20,6,0,0,6,20,0,16,0,0,16,0,23,5,16,11,0,0,0,0,0,0,0,0,0,0,0,0,0,0,0,0,0,0,0,0,0,0,0,0,0,0,0,0,0,0,0,0,0,0,0,0,0,0,0,0,0,0],"split_type":[0,0,0,0,0,0,0,0,0,0,0,0,0,0,0,0,0,0,0,0,0,0,0,0,0,0,0,0,0,0,0,0,0,0,0,0,0,0,0,0,0,0,0,0,0,0,0,0,0,0,0,0,0,0,0,0,0,0,0,0,0,0,0,0,0,0,0,0,0,0,0,0,0,0,0,0,0,0,0,0,0,0,0,0,0,0,0,0,0,0,0,0,0,0,0,0,0],"sum_hessian":[6.0608156E4,4.1057426E4,1.955073E4,5.901909E3,3.5155516E4,8.018244E3,1.1532486E4,4.7097227E3,1.1921866E3,1.6574042E3,3.3498113E4,7.7118184E3,3.064258E2,6.961213E3,4.571273E3,2.968282E3,1.7414404E3,9.3684375E2,2.553429E2,2.3559767E2,1.4218065E3,3.1219182E4,2.27893E3,7.393348E3,3.1846997E2,4.144503E1,2.649808E2,5.48339E3,1.4778231E3,4.3224883E3,2.487847E2,1.8953926E3,1.0728895E3,2.1232663E2,7.245171E2,2.1418393E2,4.1158974E1,8.7190544E1,1.4840712E2,1.2178182E3,2.0398834E2,2.5536482E4,5.6826997E3,1.1409296E3,1.1380002E3,7.12979E3,2.6355814E2,4.874932E1,2.6972067E2,5.4186387E3,6.475122E1,4.2221545E2,1.0556077E3,3.2502678E3,1.0722206E3,1.5453176E1,2.3333153E2,1.7533198E3,1.4207266E2,5.543678E2,5.1852167E2,7.72039E1,1.3512273E2,1.1487242E1,7.57033E1,3.8306913E0,1.4457643E2,1.1125032E3,1.0531503E2,1.06315056E2,9.767329E1,1.1176703E4,1.435978E4,4.6776987E3,1.0050007E3,3.8208948E2,7.588401E2,1.0758903E3,6.210996E1,7.0178887E3,1.11901215E2,1.6717618E2,9.638196E1,3.4863346E0,5.4151523E3,5.022622E1,1.4524999E1,1.8867717E2,2.3353828E2,3.519432E1,1.0204133E3,4.4230976E1,3.2060369E3,7.0705304E2,3.6516757E2,1.7498738E2,5.834414E1],"tree_param":{"num_deleted":"0","num_feature":"32","num_nodes":"97","size_leaf_vector":"1"}},{"base_weights":[-8.50596E-3,9.6579995E-3,-9.912919E-1,2.4801819E-2,-1.0881833E0,-3.1714922E-1,5.866181E-1,3.904393E-2,-3.1321082E-1,-3.3227247E-1,-2.9969862E-1,-3.492652E-1,7.54446E-1,5.277686E-2,-1.0801028E0,2.6663044E-1,-2.7581334E-1,6.571182E-2,-1.1252258E0,-3.1007403E-1,-1.169665E0,3.246028E-2,-7.32298E-2,-3.243722E-1,-4.5587674E-1,-3.2724613E-1,-4.125586E-1],"categories":[],"categories_nodes":[],"categories_segments":[],"categories_sizes":[],"default_left":[0,0,0,0,0,0,0,0,0,0,0,0,0,0,0,0,0,0,0,0,0,0,0,0,0,0,0],"id":17,"left_children":[1,3,5,7,9,-1,11,13,-1,-1,-1,-1,15,17,19,-1,-1,21,23,-1,25,-1,-1,-1,-1,-1,-1],"loss_changes":[1.00992786E3,9.235466E2,1.0732977E2,8.3413525E2,2.006836E-1,0E0,1.31561985E1,8.311283E2,0E0,0E0,0E0,0E0,9.526226E0,8.140479E2,1.5223999E0,0E0,0E0,6.955931E2,8.422119E0,0E0,2.008484E0,0E0,0E0,0E0,0E0,0E0,0E0],"parents":[2147483647,0,0,1,1,2,2,3,3,4,4,6,6,7,7,12,12,13,13,14,14,17,17,18,18,20,20],"right_children":[2,4,6,8,10,-1,12,14,-1,-1,-1,-1,16,18,20,-1,-1,22,24,-1,26,-1,-1,-1,-1,-1,-1],"split_conditions":[1E0,1E0,1.8675E2,1E0,5.324E1,-3.1714922E-1,3.94193E1,1E0,-3.1321082E-1,-3.3227247E-1,-2.9969862E-1,-3.492652E-1,5E1,1E0,2.2E1,2.6663044E-1,-2.7581334E-1,5.277E1,2.2E1,-3.1007403E-1,1.535E1,3.246028E-2,-7.32298E-2,-3.243722E-1,-4.5587674E-1,-3.2724613E-1,-4.125586E-1],"split_indices":[24,18,0,30,0,0,5,29,0,0,0,0,16,26,10,0,0,0,10,0,0,0,0,0,0,0,0],"split_type":[0,0,0,0,0,0,0,0,0,0,0,0,0,0,0,0,0,0,0,0,0,0,0,0,0,0,0],"sum_hessian":[5.6572984E4,5.554734E4,1.025642E3,5.47925E4,7.548401E2,9.8485767E2,4.078431E1,5.407295E4,7.195509E2,6.106519E2,1.4418817E2,3.04814E0,3.7736168E1,5.3418414E4,6.5453864E2,3.536703E1,2.3691382E0,5.283916E4,5.7925195E2,4.3902728E2,2.1551137E2,4.6467074E4,6.372085E3,5.244945E2,5.4757427E1,1.6031824E2,5.5193123E1],"tree_param":{"num_deleted":"0","num_feature":"32","num_nodes":"27","size_leaf_vector":"1"}},{"base_weights":[-8.837784E-3,4.8738597E-3,-9.756643E-1,1.6212964E-2,-3.1979156E-1,-3.1278503E-1,5.2702457E-1,-3.773014E-1,4.7501102E-2,-3.7260866E-1,6.9413304E-1,-6.996283E-1,5.494651E-1,2.233438E-1,-3.5572823E-2,2.5621462E-1,-2.581964E-1,-2.9729682E-1,-1.1044596E0,-1.8530318E0,7.361156E-1,2.6561412E-1,-1.0986819E0,-1.910349E-1,1.2335037E-1,-3.1978825E-1,8.540251E-2,2.9896134E-1,-3.6853367E-1,-3.2024246E-1,-8.1169105E-1,-3.7313315E-1,2.6952562E-1,1.13936156E-1,-5.5775467E-2,-4.3513945E-1,1.622038E-1,1.08573236E-1,-8.007464E-2,7.935946E-2,-6.3581094E-2],"categories":[],"categories_nodes":[],"categories_segments":[],"categories_sizes":[],"default_left":[0,0,0,0,0,0,0,0,0,0,0,0,0,0,0,0,0,0,0,0,0,0,0,0,0,0,0,0,0,0,0,0,0,0,0,0,0,0,0,0,0],"id":18,"left_children":[1,3,5,7,-1,-1,9,11,13,-1,15,17,19,21,23,-1,-1,25,27,29,31,33,35,37,39,-1,-1,-1,-1,-1,-1,-1,-1,-1,-1,-1,-1,-1,-1,-1,-1],"loss_changes":[7.316523E2,6.608043E2,7.819696E1,6.6304236E2,0E0,0E0,1.0790382E1,1.185228E3,7.287261E2,0E0,8.524017E0,4.7906592E2,4.605889E2,8.9473865E2,8.370858E2,0E0,0E0,6.612834E2,3.8329688E2,4.674823E1,3.067044E2,7.9969385E2,2.868894E2,7.187075E2,7.9313776E2,0E0,0E0,0E0,0E0,0E0,0E0,0E0,0E0,0E0,0E0,0E0,0E0,0E0,0E0,0E0,0E0],"parents":[2147483647,0,0,1,1,2,2,3,3,6,6,7,7,8,8,10,10,11,11,12,12,13,13,14,14,17,17,18,18,19,19,20,20,21,21,22,22,23,23,24,24],"right_children":[2,4,6,8,-1,-1,10,12,14,-1,16,18,20,22,24,-1,-1,26,28,30,32,34,36,38,40,-1,-1,-1,-1,-1,-1,-1,-1,-1,-1,-1,-1,-1,-1,-1,-1],"split_conditions":[1E0,1E0,1.8675E2,5.78E0,-3.1979156E-1,-3.1278503E-1,3.8E1,1E0,4E0,-3.7260866E-1,5E1,2.79E0,2E0,1.363958E9,-8.422976E1,2.5621462E-1,-2.581964E-1,1E0,1.3256566E9,2.2E1,5.6E1,2.377E1,8.8E1,-1.18523E2,5.6E1,-3.1978825E-1,8.540251E-2,2.9896134E-1,-3.6853367E-1,-3.2024246E-1,-8.1169105E-1,-3.7313315E-1,2.6952562E-1,1.13936156E-1,-5.5775467E-2,-4.3513945E-1,1.622038E-1,1.08573236E-1,-8.007464E-2,7.935946E-2,-6.3581094E-2],"split_indices":[24,18,0,0,0,0,16,25,8,0,16,0,13,4,6,0,0,31,4,10,16,0,16,2,16,0,0,0,0,0,0,0,0,0,0,0,0,0,0,0,0],"split_type":[0,0,0,0,0,0,0,0,0,0,0,0,0,0,0,0,0,0,0,0,0,0,0,0,0,0,0,0,0,0,0,0,0,0,0,0,0,0,0,0,0],"sum_hessian":[5.518944E4,5.4418664E4,7.7077673E2,5.384944E4,5.692229E2,7.381926E2,3.2584072E1,3.9653787E3,4.9884062E4,2.2571218E0,3.032695E1,2.9422998E3,1.0230789E3,1.6004861E4,3.3879203E4,2.790728E1,2.4196699E0,1.4765759E3,1.4657238E3,7.31097E1,9.4996924E2,1.5509753E4,4.951083E2,1.7125988E4,1.6753213E4,6.358795E2,8.406964E2,8.128445E1,1.3844393E3,3.9223095E1,3.3886612E1,7.14694E1,8.784998E2,1.2379636E4,3.130117E3,4.0773056E2,8.7377754E1,2.0661404E3,1.5059849E4,1.178926E4,4.9639536E3],"tree_param":{"num_deleted":"0","num_feature":"32","num_nodes":"41","size_leaf_vector":"1"}},{"base_weights":[-7.940504E-3,-4.995817E-1,1.683964E-2,1.4083593E-1,-9.988029E-1,2.7079927E-2,-3.1097776E-1,-1.7718153E0,3.2944447E-1,-1.4380615E0,-3.599077E-1,3.8297955E-2,-9.6081555E-1,-2.02209E0,2.207803E-1,5.461945E-1,-8.4556514E-1,-1.5808184E0,2.3305941E-2,1.1429892E-1,-1.6331525E0,4.850271E-2,-1.037839E0,-3.09429E-1,4.6064392E-1,-1.80162E0,-3.701379E0,2.6358637E-1,-2.4542473E-1,6.28802E-1,-6.895861E-1,-1.8084431E0,-2.7466595E-2,-1.7662932E0,-7.924852E-1,2.959816E-1,-3.0153942E-1,4.0834898E-1,-1.8488349E0,-1.9044555E0,2.3148136E-1,4.0616867E-1,1.6725775E-2,-5.023302E-1,-3.021307E-1,6.469866E-1,-2.9537395E-1,-4.3670985E-1,-8.445015E-1,-1.4410034E0,-2.3687606E-1,-5.8437835E-2,2.35926E-1,-5.819843E-1,1.6764402E-1,-7.289367E-1,-3.248206E-1,-4.6511537E-1,2.042838E-1,-2.6061326E-1,-6.0463554E-1,-5.4760027E-1,1.0710477E-1,1.8390799E-1,-5.696271E-1,-4.56432E-1,-7.863398E-1,-5.0497216E-1,-1.1288974E0,-4.5766762E-1,2.7311558E-1,1.6446157E-1,-9.132387E-2,-3.587638E-2,3.8959656E-2,-2.5367358E-1,2.3515473E-1],"categories":[],"categories_nodes":[],"categories_segments":[],"categories_sizes":[],"default_left":[0,0,0,0,0,0,0,0,0,0,0,0,0,0,0,0,0,0,0,0,0,0,0,0,0,0,0,0,0,0,0,0,0,0,0,0,0,0,0,0,0,0,0,0,0,0,0,0,0,0,0,0,0,0,0,0,0,0,0,0,0,0,0,0,0,0,0,0,0,0,0,0,0,0,0,0,0],"id":19,"left_children":[1,3,5,7,9,11,-1,13,15,17,19,21,23,25,27,29,31,33,35,37,39,41,43,-1,45,47,49,-1,-1,51,53,55,57,59,61,-1,-1,63,65,67,69,71,73,-1,-1,75,-1,-1,-1,-1,-1,-1,-1,-1,-1,-1,-1,-1,-1,-1,-1,-1,-1,-1,-1,-1,-1,-1,-1,-1,-1,-1,-1,-1,-1,-1,-1],"loss_changes":[6.513012E2,8.2027606E2,5.490571E2,4.062705E2,4.0407007E2,5.5864984E2,0E0,5.086438E1,2.6138223E2,1.7819226E2,3.5562714E2,5.473919E2,5.7287415E1,2.6621643E1,9.0446825E0,8.879248E1,1.2594323E2,1.12354004E2,7.72585E1,2.4890283E2,8.129004E1,5.6115393E2,7.4756165E0,0E0,8.036978E0,2.444754E1,2.6647034E1,0E0,0E0,1.0554016E2,8.648396E1,3.04915E1,9.544335E1,1.389176E2,1.7873065E2,0E0,0E0,1.7809773E2,1.0217407E1,5.1071777E1,2.6667398E1,4.067743E2,6.993681E2,0E0,0E0,5.758073E0,0E0,0E0,0E0,0E0,0E0,0E0,0E0,0E0,0E0,0E0,0E0,0E0,0E0,0E0,0E0,0E0,0E0,0E0,0E0,0E0,0E0,0E0,0E0,0E0,0E0,0E0,0E0,0E0,0E0,0E0,0E0],"parents":[2147483647,0,0,1,1,2,2,3,3,4,4,5,5,7,7,8,8,9,9,10,10,11,11,12,12,13,13,14,14,15,15,16,16,17,17,18,18,19,19,20,20,21,21,22,22,24,24,25,25,26,26,29,29,30,30,31,31,32,32,33,33,34,34,37,37,38,38,39,39,40,40,41,41,42,42,45,45],"right_children":[2,4,6,8,10,12,-1,14,16,18,20,22,24,26,28,30,32,34,36,38,40,42,44,-1,46,48,50,-1,-1,52,54,56,58,60,62,-1,-1,64,66,68,70,72,74,-1,-1,76,-1,-1,-1,-1,-1,-1,-1,-1,-1,-1,-1,-1,-1,-1,-1,-1,-1,-1,-1,-1,-1,-1,-1,-1,-1,-1,-1,-1,-1,-1,-1],"split_conditions":[2.8E1,1.3394056E9,1E0,8E0,1E1,1E0,-3.1097776E-1,1E0,1.823E1,1E0,3.98016E1,1E0,1.8675E2,1E0,1.21E1,-7.53209E1,2.5E1,1.125E4,1.21E1,5.76E3,5.8E1,4E0,2.377E1,-3.09429E-1,4E0,2.2E1,1.823E1,2.6358637E-1,-2.4542473E-1,-9.01217E1,5E1,2.441E1,2.2E1,-9.34855E1,1.36739E9,2.959816E-1,-3.0153942E-1,2.1E1,2.2E1,1E0,1E0,2.187E1,1.763E1,-5.023302E-1,-3.021307E-1,2.6E1,-2.9537395E-1,-4.3670985E-1,-8.445015E-1,-1.4410034E0,-2.3687606E-1,-5.8437835E-2,2.35926E-1,-5.819843E-1,1.6764402E-1,-7.289367E-1,-3.248206E-1,-4.6511537E-1,2.042838E-1,-2.6061326E-1,-6.0463554E-1,-5.4760027E-1,1.0710477E-1,1.8390799E-1,-5.696271E-1,-4.56432E-1,-7.863398E-1,-5.0497216E-1,-1.1288974E0,-4.5766762E-1,2.7311558E-1,1.6446157E-1,-9.132387E-2,-3.587638E-2,3.8959656E-2,-2.5367358E-1,2.3515473E-1],"split_indices":[16,4,30,9,8,24,0,20,0,20,1,22,0,21,0,2,9,3,0,3,11,10,0,0,13,10,0,0,0,2,12,0,10,2,4,0,0,9,10,21,28,0,0,0,0,11,0,0,0,0,0,0,0,0,0,0,0,0,0,0,0,0,0,0,0,0,0,0,0,0,0,0,0,0,0,0,0],"split_type":[0,0,0,0,0,0,0,0,0,0,0,0,0,0,0,0,0,0,0,0,0,0,0,0,0,0,0,0,0,0,0,0,0,0,0,0,0,0,0,0,0,0,0,0,0,0,0,0,0,0,0,0,0,0,0,0,0,0,0,0,0,0,0,0,0,0,0,0,0,0,0,0,0,0,0,0,0],"sum_hessian":[5.3458418E4,2.564248E3,5.0894168E4,1.1235887E3,1.4406594E3,5.040516E4,4.8900824E2,1.0009959E2,1.02348914E3,8.529685E2,5.8769086E2,4.9840164E4,5.649977E2,8.891665E1,1.118294E1,8.645447E2,1.5894447E2,7.7698517E2,7.598332E1,4.2887216E2,1.588187E2,4.9372926E4,4.672371E2,5.3851984E2,2.6477837E1,8.043002E1,8.486623E0,6.9415665E0,4.2413735E0,8.108345E2,5.371019E1,7.24557E1,8.648877E1,6.279937E2,1.4899146E2,3.925515E1,3.6728176E1,3.7369052E2,5.518164E1,1.3862717E2,2.0191526E1,4.027666E3,4.534526E4,1.9057468E1,4.4817963E2,2.3943026E1,2.534812E0,6.1778355E1,1.8651669E1,5.6853776E0,2.8012452E0,1.3021126E2,6.806232E2,2.6557253E1,2.7152937E1,3.776953E1,3.4686172E1,2.7081493E1,5.9407276E1,1.3742232E2,4.9057138E2,7.816803E1,7.0823425E1,3.439141E2,2.9776457E1,4.0839046E1,1.4342595E1,1.25584915E2,1.3042258E1,5.279863E0,1.4911664E1,3.3568928E3,6.707732E2,2.0566342E4,2.477892E4,1.5761274E0,2.2366898E1],"tree_param":{"num_deleted":"0","num_feature":"32","num_nodes":"77","size_leaf_vector":"1"}},{"base_weights":[-7.410042E-3,-8.006895E-2,1.4781663E-1,-1.0037935E0,-6.120838E-2,4.5851707E-1,8.8510506E-2,-5.2540854E-2,-1.5505606E0,-1.04770705E-1,3.2308862E-1,-2.3010871E0,5.057819E-1,-2.515387E0,9.560773E-2,-9.5222807E-1,6.7722833E-1,-1.3358631E0,-1.8203862E0,-6.954456E-1,-6.8823546E-2,-2.148868E-1,1.3214209E0,-3.240562E-1,-3.555702E0,5.243843E-1,-3.1531606E0,-2.1333148E0,-1.512509E0,4.667382E-2,4.321545E-1,-1.9198259E0,1.7637378E-1,8.7312615E-1,-4.0267888E-1,-3.5314402E-1,-1.7584633E0,-2.4718428E0,-1.215846E0,-9.46522E-2,-1.1732475E0,5.902127E-1,